{"learner":{"attributes":{"scikit_learn":"{\"_estimator_type\": \"classifier\"}"},"feature_names":["IPV","IPS","IAA","IEG","Nº Av","IDA"],"feature_types":["float","float","float","float","float","float"],"gradient_booster":{"model":{"cats":{"enc":[],"feature_segments":[],"sorted_idx":[]},"gbtree_model_param":{"num_parallel_tree":"1","num_trees":"100"},"iteration_indptr":[0,1,2,3,4,5,6,7,8,9,10,11,12,13,14,15,16,17,18,19,20,21,22,23,24,25,26,27,28,29,30,31,32,33,34,35,36,37,38,39,40,41,42,43,44,45,46,47,48,49,50,51,52,53,54,55,56,57,58,59,60,61,62,63,64,65,66,67,68,69,70,71,72,73,74,75,76,77,78,79,80,81,82,83,84,85,86,87,88,89,90,91,92,93,94,95,96,97,98,99,100],"tree_info":[0,0,0,0,0,0,0,0,0,0,0,0,0,0,0,0,0,0,0,0,0,0,0,0,0,0,0,0,0,0,0,0,0,0,0,0,0,0,0,0,0,0,0,0,0,0,0,0,0,0,0,0,0,0,0,0,0,0,0,0,0,0,0,0,0,0,0,0,0,0,0,0,0,0,0,0,0,0,0,0,0,0,0,0,0,0,0,0,0,0,0,0,0,0,0,0,0,0,0,0],"trees":[{"base_weights":[-6.359845E-3,-1.4854437E-1,6.719581E-2,8.388598E-1,-2.2429044E-3,-5.870803E-1,1.1364975E0,-5.1881626E-2,8.688268E-1,1.2577122E-1,-9.8377764E-2,1.8709995E-1,6.850156E-1,-9.689873E-2,7.9400927E-1,1.7379564E0,2.827415E-1,-3.686203E-2,5.6166142E-2,9.4204503E-1,1.2931833E-1,-3.7869334E-1,-1.7943583E-2,1.3760941E0,2.373556E-1,2.0836928E-1,8.370347E-1,1.1738652E-1,-3.6158994E-1,6.0469802E-2,1.7158489E-1,6.901385E-2,-7.833823E-2,-2.1244569E-2,-5.8178097E-2,7.522287E-2,-1.0499961E-2,1.635329E-1,4.288224E-2,1.10289216E-1,-6.0496186E-3,9.652056E-3,1.10289216E-1,-1.0120388E-1,3.0100247E-2],"categories":[],"categories_nodes":[],"categories_segments":[],"categories_sizes":[],"default_left":[0,0,0,0,0,0,0,0,0,0,0,0,0,0,0,0,0,0,0,0,0,0,0,0,0,0,0,0,0,0,0,0,0,0,0,0,0,0,0,0,0,0,0,0,0],"id":0,"left_children":[1,-1,3,5,7,9,11,13,15,17,-1,-1,19,21,23,25,27,-1,-1,29,31,33,35,37,39,-1,41,-1,43,-1,-1,-1,-1,-1,-1,-1,-1,-1,-1,-1,-1,-1,-1,-1,-1],"loss_changes":[4.8773155E1,0E0,2.28899E1,1.5634842E1,1.7032787E1,2.0323775E0,8.506657E0,1.426703E1,1.0326908E1,9.181423E-1,0E0,0E0,2.7145252E0,7.885086E0,5.8097334E0,8.596363E-1,8.3933325E0,0E0,0E0,2.465273E0,4.348562E0,2.4958076E0,1.872659E1,1.5209103E0,2.8739285E0,0E0,6.790061E-1,0E0,4.1055584E0,0E0,0E0,0E0,0E0,0E0,0E0,0E0,0E0,0E0,0E0,0E0,0E0,0E0,0E0,0E0,0E0],"parents":[2147483647,0,0,2,2,3,3,4,4,5,5,6,6,7,7,8,8,9,9,12,12,13,13,14,14,15,15,16,16,19,19,20,20,21,21,22,22,23,23,24,24,26,26,28,28],"right_children":[2,-1,4,6,8,10,12,14,16,18,-1,-1,20,22,24,26,28,-1,-1,30,32,34,36,38,40,-1,42,-1,44,-1,-1,-1,-1,-1,-1,-1,-1,-1,-1,-1,-1,-1,-1,-1,-1],"split_conditions":[2E0,-1.4854437E-1,4.6E0,6.3048735E0,1.0002E1,3.3E0,8.181818E0,5E0,3E0,2.1E0,-9.8377764E-2,1.8709995E-1,4E0,7.4358974E0,8.4E0,9.327122E0,8.392858E0,-3.686203E-2,5.6166142E-2,9.619047E0,7.0666666E0,6.5E0,7.9E0,6.9E0,6.6450214E0,2.0836928E-1,9.565217E0,1.1738652E-1,9.259259E0,6.0469802E-2,1.7158489E-1,6.901385E-2,-7.833823E-2,-2.1244569E-2,-5.8178097E-2,7.522287E-2,-1.0499961E-2,1.635329E-1,4.288224E-2,1.10289216E-1,-6.0496186E-3,9.652056E-3,1.10289216E-1,-1.0120388E-1,3.0100247E-2],"split_indices":[4,0,2,3,2,5,3,4,4,5,0,0,4,3,2,3,3,0,0,3,5,3,3,5,3,0,3,0,3,0,0,0,0,0,0,0,0,0,0,0,0,0,0,0,0],"split_type":[0,0,0,0,0,0,0,0,0,0,0,0,0,0,0,0,0,0,0,0,0,0,0,0,0,0,0,0,0,0,0,0,0,0,0,0,0,0,0,0,0,0,0,0,0],"sum_hessian":[4.4638593E2,2.0238003E1,4.2614792E2,3.4266617E1,3.9188132E2,5.7494326E0,2.8517185E1,3.716433E2,2.0238003E1,2.299773E0,3.4496593E0,9.659046E0,1.8858139E1,3.5370508E2,1.7938229E1,7.3592734E0,1.2878729E1,1.1498865E0,1.1498865E0,1.2418774E1,6.4393644E0,7.6582436E1,2.7712265E2,8.049206E0,9.889024E0,4.369569E0,2.9897048E0,5.0595007E0,7.819228E0,9.889024E0,2.5297503E0,4.139591E0,2.299773E0,4.3235733E1,3.3346706E1,2.7367298E1,2.4975534E2,5.7494326E0,2.299773E0,1.8398184E0,8.049206E0,1.1498865E0,1.8398184E0,3.6796367E0,4.139591E0],"tree_param":{"num_deleted":"0","num_feature":"6","num_nodes":"45","size_leaf_vector":"1"}},{"base_weights":[3.7754886E-2,-2.4131262E-1,6.4207685E-1,4.3185836E-1,-1.4902566E-1,8.950701E-1,-5.9609574E-1,8.086376E-1,2.0700905E-1,1.6943143E-1,8.008041E-1,-1.824116E-1,-1.3715178E-1,1.305583E0,5.7065237E-1,-3.8682967E-1,6.597534E-1,9.3716145E-1,3.9825746E-1,-1.1573445E-1,1.0452796E-1,1.3576385E0,2.951167E-2,-7.16094E-1,7.047713E-1,1.3181677E-1,-1.4654203E-1,1.049339E0,-2.3860371E-1,3.307623E-1,1.0241019E0,1.5077282E-1,-2.5660887E-2,6.0377806E-1,-2.1865387E-1,1.6848724E-1,8.768223E-2,3.5556797E-2,-1.17473066E-1,5.7490923E-2,1.8976612E-1,-7.366344E-2,3.9657086E-2,1.3647293E-1,1.2838095E-2,-1.3887027E-1,6.463422E-2,-5.7515122E-2,5.3870466E-2,1.13878205E-1,4.912378E-2,3.2832813E-2,-2.2233993E-2,8.283036E-2,-6.7855767E-3,3.48819E-2,-6.146711E-2],"categories":[],"categories_nodes":[],"categories_segments":[],"categories_sizes":[],"default_left":[0,0,0,0,0,0,0,0,0,0,0,0,0,0,0,0,0,0,0,0,0,0,0,0,0,0,0,0,0,0,0,0,0,0,0,0,0,0,0,0,0,0,0,0,0,0,0,0,0,0,0,0,0,0,0,0,0],"id":1,"left_children":[1,3,5,7,-1,9,11,13,15,-1,17,19,-1,21,23,25,27,29,31,-1,33,35,-1,37,39,41,-1,43,45,47,49,-1,51,53,55,-1,-1,-1,-1,-1,-1,-1,-1,-1,-1,-1,-1,-1,-1,-1,-1,-1,-1,-1,-1,-1,-1],"loss_changes":[7.50305E1,2.5661115E2,4.4554012E1,1.66577E1,0E0,7.464615E0,7.5904837E0,7.992382E0,3.405602E1,0E0,5.4796906E0,4.9025426E0,0E0,8.168869E-1,9.432493E0,3.096957E1,2.5345922E1,3.8214722E0,1.3546045E1,0E0,2.410737E0,1.9425011E0,0E0,3.06157E0,6.2445507E0,9.045189E0,0E0,1.4405914E1,2.380192E1,2.4520526E0,3.6288986E0,0E0,1.5881748E0,9.3319154E-1,2.3060417E0,0E0,0E0,0E0,0E0,0E0,0E0,0E0,0E0,0E0,0E0,0E0,0E0,0E0,0E0,0E0,0E0,0E0,0E0,0E0,0E0,0E0,0E0],"parents":[2147483647,0,0,1,1,2,2,3,3,5,5,6,6,7,7,8,8,10,10,11,11,13,13,14,14,15,15,16,16,17,17,18,18,20,20,21,21,23,23,24,24,25,25,27,27,28,28,29,29,30,30,32,32,33,33,34,34],"right_children":[2,4,6,8,-1,10,12,14,16,-1,18,20,-1,22,24,26,28,30,32,-1,34,36,-1,38,40,42,-1,44,46,48,50,-1,52,54,56,-1,-1,-1,-1,-1,-1,-1,-1,-1,-1,-1,-1,-1,-1,-1,-1,-1,-1,-1,-1,-1,-1],"split_conditions":[7.505E0,6.9E0,8.1E0,4.4E0,-1.4902566E-1,6.265E0,8.333E0,7.495E0,5.625E0,1.6943143E-1,4E0,8.13E0,-1.3715178E-1,1.0002E1,7.613333E0,5.6E0,6.3E0,7.09E0,7.083E0,-1.1573445E-1,4E0,4E0,2.951167E-2,7.542E0,9.5E0,6.505E0,-1.4654203E-1,8.125E0,6.875E0,7.501E0,8.625E0,1.5077282E-1,7.778E0,8.8E0,6.826667E0,1.6848724E-1,8.768223E-2,3.5556797E-2,-1.17473066E-1,5.7490923E-2,1.8976612E-1,-7.366344E-2,3.9657086E-2,1.3647293E-1,1.2838095E-2,-1.3887027E-1,6.463422E-2,-5.7515122E-2,5.3870466E-2,1.13878205E-1,4.912378E-2,3.2832813E-2,-2.2233993E-2,8.283036E-2,-6.7855767E-3,3.48819E-2,-6.146711E-2],"split_indices":[1,1,1,1,0,0,0,0,1,0,4,1,0,2,0,1,1,0,0,0,4,4,0,0,0,0,0,0,1,2,0,0,0,1,0,0,0,0,0,0,0,0,0,0,0,0,0,0,0,0,0,0,0,0,0,0,0],"split_type":[0,0,0,0,0,0,0,0,0,0,0,0,0,0,0,0,0,0,0,0,0,0,0,0,0,0,0,0,0,0,0,0,0,0,0,0,0,0,0,0,0,0,0,0,0,0,0,0,0,0,0,0,0,0,0,0,0],"sum_hessian":[4.4297894E2,3.0345044E2,1.3952852E2,1.9759988E2,1.0585056E2,1.16086006E2,2.3442509E1,7.287954E1,1.24720345E2,1.0456418E1,1.0562959E2,1.6092482E1,7.3500257E0,2.2147202E1,5.0732334E1,5.401611E1,7.070423E1,7.791039E1,2.7719198E1,2.9695275E0,1.3122955E1,2.0735413E1,1.4117886E0,4.3791547E0,4.635318E1,3.706904E1,1.6947071E1,4.9199913E1,2.1504322E1,1.0371915E1,6.7538475E1,6.9563994E0,2.0762798E1,4.8156013E0,8.307354E0,1.0848171E1,9.887242E0,1.3798023E0,2.9993522E0,4.313888E1,3.2142982E0,8.244137E0,2.8824902E1,3.629017E1,1.2909743E1,9.103683E0,1.2400639E1,1.6066275E0,8.765287E0,5.464168E1,1.2896793E1,7.1766615E0,1.3586138E1,3.4342675E0,1.3813337E0,3.4635057E0,4.843848E0],"tree_param":{"num_deleted":"0","num_feature":"6","num_nodes":"57","size_leaf_vector":"1"}},{"base_weights":[-3.495711E-4,-2.7322808E-1,5.3170586E-1,3.2496783E-1,-1.4014728E-1,7.76108E-1,-6.5935886E-1,7.3082954E-1,8.385304E-2,1.0308398E0,4.056012E-1,-2.8471944E-1,-1.1068254E0,9.1252863E-1,-2.306671E-1,-4.0580085E-1,4.5155564E-1,1.3817915E0,8.6469275E-1,5.8927953E-1,-1.963751E-1,-5.384266E-1,5.740936E-1,-1.16060175E-1,-3.2024827E-2,1.5729214E0,7.361726E-1,7.0765895E-1,-7.05716E-1,4.0084284E-2,-1.3882092E-1,8.199516E-1,-3.5859603E-1,1.6614734E0,6.1681896E-1,9.1486263E-1,-3.2176144E-2,6.806199E-1,2.6382634E-1,-5.536446E-1,6.1588186E-1,5.759206E-2,-7.5707114E-1,-8.1380844E-2,1.4068317E-1,-1.067649E-3,1.8774506E-1,9.4834305E-2,3.2009974E-2,1.4743566E-2,9.7171254E-2,1.283388E-2,-9.251366E-2,-1.1930235E-1,3.1708598E-2,1.01655476E-1,-5.74027E-2,-1.3273753E-1,3.8724065E-2,1.7656824E-1,6.1443623E-2,8.838188E-2,-4.249033E-2,8.052426E-2,1.5660296E-1,4.803871E-2,1.226235E-1,-7.78029E-2,6.236822E-2,-1.0731457E-2,-1.1512051E-1,-4.564618E-3,9.271049E-2,7.793029E-3,-8.653631E-2],"categories":[],"categories_nodes":[],"categories_segments":[],"categories_sizes":[],"default_left":[0,0,0,0,0,0,0,0,0,0,0,0,0,0,0,0,0,0,0,0,0,0,0,0,0,0,0,0,0,0,0,0,0,0,0,0,0,0,0,0,0,0,0,0,0,0,0,0,0,0,0,0,0,0,0,0,0,0,0,0,0,0,0,0,0,0,0,0,0,0,0,0,0,0,0],"id":2,"left_children":[1,3,5,7,-1,9,11,13,15,17,19,21,23,25,27,29,31,33,35,37,39,41,43,-1,-1,45,47,49,51,53,-1,55,57,59,61,63,-1,65,67,69,71,-1,73,-1,-1,-1,-1,-1,-1,-1,-1,-1,-1,-1,-1,-1,-1,-1,-1,-1,-1,-1,-1,-1,-1,-1,-1,-1,-1,-1,-1,-1,-1,-1,-1],"loss_changes":[6.3628574E1,1.9596506E2,4.3760746E1,1.8543873E1,0E0,1.1260002E1,4.0160465E0,1.2566322E1,2.1860323E1,3.0428238E0,5.8720303E0,3.6665087E0,1.1169338E-1,5.793293E0,5.865885E0,2.2904922E1,2.0957489E1,3.6132965E0,3.3893967E0,1.013649E0,4.0906534E0,3.4598978E0,5.765535E0,0E0,0E0,5.662264E0,4.0208263E0,5.2919054E-1,1.6730952E0,1.296534E1,0E0,1.3710224E1,1.6653887E1,5.8278275E-1,2.4322174E0,2.3185005E0,0E0,2.7659588E0,4.395438E0,2.4103673E0,9.5244396E-1,0E0,1.0446782E0,0E0,0E0,0E0,0E0,0E0,0E0,0E0,0E0,0E0,0E0,0E0,0E0,0E0,0E0,0E0,0E0,0E0,0E0,0E0,0E0,0E0,0E0,0E0,0E0,0E0,0E0,0E0,0E0,0E0,0E0,0E0,0E0],"parents":[2147483647,0,0,1,1,2,2,3,3,5,5,6,6,7,7,8,8,9,9,10,10,11,11,12,12,13,13,14,14,15,15,16,16,17,17,18,18,19,19,20,20,21,21,22,22,25,25,26,26,27,27,28,28,29,29,31,31,32,32,33,33,34,34,35,35,37,37,38,38,39,39,40,40,42,42],"right_children":[2,4,6,8,-1,10,12,14,16,18,20,22,24,26,28,30,32,34,36,38,40,42,44,-1,-1,46,48,50,52,54,-1,56,58,60,62,64,-1,66,68,70,72,-1,74,-1,-1,-1,-1,-1,-1,-1,-1,-1,-1,-1,-1,-1,-1,-1,-1,-1,-1,-1,-1,-1,-1,-1,-1,-1,-1,-1,-1,-1,-1,-1,-1],"split_conditions":[7.505E0,6.9E0,8.1E0,4.4E0,-1.4014728E-1,9.035714E0,7.833E0,9.702381E0,5.625E0,3E0,4E0,9.128788E0,9.761905E0,6.917E0,8.167E0,5.6E0,6.3E0,7.52E0,8.7975E0,9.824561E0,9.855072E0,5.3E0,7.495E0,-1.16060175E-1,-3.2024827E-2,5.3E0,4E0,7.866E0,3E0,3E0,-1.3882092E-1,8.616667E0,6.88E0,8.09E0,8.722222E0,8.278E0,-3.2176144E-2,9.619047E0,7.675E0,8.4975E0,8.389E0,5.759206E-2,5.66E0,-8.1380844E-2,1.4068317E-1,-1.067649E-3,1.8774506E-1,9.4834305E-2,3.2009974E-2,1.4743566E-2,9.7171254E-2,1.283388E-2,-9.251366E-2,-1.1930235E-1,3.1708598E-2,1.01655476E-1,-5.74027E-2,-1.3273753E-1,3.8724065E-2,1.7656824E-1,6.1443623E-2,8.838188E-2,-4.249033E-2,8.052426E-2,1.5660296E-1,4.803871E-2,1.226235E-1,-7.78029E-2,6.236822E-2,-1.0731457E-2,-1.1512051E-1,-4.564618E-3,9.271049E-2,7.793029E-3,-8.653631E-2],"split_indices":[1,1,1,1,0,3,0,3,1,4,4,3,3,0,0,1,1,1,0,3,3,3,0,0,0,3,4,0,4,4,0,0,1,0,3,0,0,3,0,0,0,0,0,0,0,0,0,0,0,0,0,0,0,0,0,0,0,0,0,0,0,0,0,0,0,0,0,0,0,0,0,0,0,0,0],"split_type":[0,0,0,0,0,0,0,0,0,0,0,0,0,0,0,0,0,0,0,0,0,0,0,0,0,0,0,0,0,0,0,0,0,0,0,0,0,0,0,0,0,0,0,0,0,0,0,0,0,0,0,0,0,0,0,0,0,0,0,0,0,0,0,0,0,0,0,0,0,0,0,0,0,0,0],"sum_hessian":[4.362535E2,2.8868192E2,1.475716E2,1.8912155E2,9.956037E1,1.2273517E2,2.483642E1,6.972477E1,1.1939678E2,7.167485E1,5.1060318E1,1.4408912E1,1.0427508E1,5.8685577E1,1.1039191E1,5.116239E1,6.823439E1,2.0678677E1,5.0996174E1,3.913908E1,1.1921239E1,1.1410982E1,2.9979296E0,9.3151455E0,1.1123631E0,1.0699732E1,4.7985847E1,3.5458004E0,7.4933906E0,3.5850254E1,1.53121395E1,4.689705E1,2.1337341E1,1.4284265E1,6.394413E0,4.914688E1,1.849294E0,2.9709604E1,9.429476E0,8.500639E0,3.4206002E0,1.6036656E0,9.807317E0,1.1327455E0,1.8651842E0,1.8813527E0,8.818378E0,3.0932825E1,1.7053022E1,1.6350944E0,1.9107059E0,1.6472012E0,5.8461895E0,5.9694743E0,2.988078E1,4.1337646E1,5.559401E0,8.942313E0,1.2395029E1,1.23670435E1,1.917221E0,5.210507E0,1.1839058E0,4.3979763E1,5.1671157E0,2.3109285E1,6.600319E0,2.1224623E0,7.3070135E0,5.5413103E0,2.9593287E0,1.3674068E0,2.0531936E0,1.1580867E0,8.64923E0],"tree_param":{"num_deleted":"0","num_feature":"6","num_nodes":"75","size_leaf_vector":"1"}},{"base_weights":[1.0776789E-2,4.665651E-1,-2.894606E-1,2.869333E-1,8.865633E-1,-1.1980541E0,4.6740353E-1,5.122773E-1,-1.3248904E-1,1.0353806E0,-2.0640823E-1,-4.3146896E-1,-1.3526423E-1,6.7734E-1,-5.5385447E-1,6.686226E-1,1.7708203E-1,1.4189942E0,7.657938E-1,-7.3355716E-1,4.6973217E-1,-1.2596385E-1,1.3649288E-1,7.619066E-1,1.6951814E-1,1.8184894E-1,-8.941456E-1,9.544816E-1,1.6096112E-1,-9.2621654E-1,3.8449755E-1,1.7137933E0,3.4790573E-1,1.4728794E-1,1.0522367E0,-4.5835353E-3,-1.02771E-1,1.2043482E-1,-4.6649083E-2,-1.483364E-2,9.638417E-2,6.501467E-1,1.0536054E0,-3.9857817E-1,5.382574E-1,-2.1905518E-1,1.13457434E-1,-1.1659639E-1,-6.1143994E-1,1.3361987E-1,7.508411E-2,6.530624E-2,-4.3654222E-2,-1.1923083E-1,1.3257255E-2,-5.870384E-2,6.301618E-2,1.8078905E-1,4.0337365E-2,-2.2561109E-2,6.370476E-2,8.3869465E-2,-2.6606707E-2,6.2336028E-2,1.4672297E-1,-2.1798706E-2,8.381548E-2,7.3836856E-2,-1.1507123E-3,1.2082026E-1,4.262997E-2,-8.792969E-2,-8.3650043E-4,1.310495E-1,2.577141E-2,3.4695175E-2,-4.1462347E-2,-2.1244623E-2,-9.8849475E-2],"categories":[],"categories_nodes":[],"categories_segments":[],"categories_sizes":[],"default_left":[0,0,0,0,0,0,0,0,0,0,0,0,0,0,0,0,0,0,0,0,0,0,0,0,0,0,0,0,0,0,0,0,0,0,0,0,0,0,0,0,0,0,0,0,0,0,0,0,0,0,0,0,0,0,0,0,0,0,0,0,0,0,0,0,0,0,0,0,0,0,0,0,0,0,0,0,0,0,0],"id":3,"left_children":[1,3,5,7,9,11,13,15,-1,17,19,21,-1,23,25,27,29,31,33,35,37,-1,39,41,43,45,47,49,51,53,55,57,59,61,63,-1,-1,-1,-1,65,-1,67,69,71,73,75,-1,-1,77,-1,-1,-1,-1,-1,-1,-1,-1,-1,-1,-1,-1,-1,-1,-1,-1,-1,-1,-1,-1,-1,-1,-1,-1,-1,-1,-1,-1,-1,-1],"loss_changes":[6.1146076E1,1.3132435E1,1.8582373E2,4.6357056E1,8.781754E0,1.3958191E1,3.2040382E1,5.7016563E0,0E0,3.725357E0,2.8918228E0,1.0548853E1,0E0,5.1512947E0,6.605171E0,1.0784386E1,8.75101E0,5.0972824E0,5.071213E0,8.442347E-1,3.134394E0,0E0,1.7656829E0,2.7419243E0,4.1609654E0,3.6744611E0,6.5217876E-1,2.7292557E0,8.622405E0,1.8762293E0,7.908564E0,9.8286057E-1,9.971444E-1,3.2240052E0,2.644783E0,0E0,0E0,0E0,0E0,2.4026196E0,0E0,4.597286E0,2.152584E0,1.4913712E0,2.2294228E0,9.354422E-1,0E0,0E0,1.416348E0,0E0,0E0,0E0,0E0,0E0,0E0,0E0,0E0,0E0,0E0,0E0,0E0,0E0,0E0,0E0,0E0,0E0,0E0,0E0,0E0,0E0,0E0,0E0,0E0,0E0,0E0,0E0,0E0,0E0,0E0],"parents":[2147483647,0,0,1,1,2,2,3,3,4,4,5,5,6,6,7,7,9,9,10,10,11,11,13,13,14,14,15,15,16,16,17,17,18,18,19,19,20,20,22,22,23,23,24,24,25,25,26,26,27,27,28,28,29,29,30,30,31,31,32,32,33,33,34,34,39,39,41,41,42,42,43,43,44,44,45,45,48,48],"right_children":[2,4,6,8,10,12,14,16,-1,18,20,22,-1,24,26,28,30,32,34,36,38,-1,40,42,44,46,48,50,52,54,56,58,60,62,64,-1,-1,-1,-1,66,-1,68,70,72,74,76,-1,-1,78,-1,-1,-1,-1,-1,-1,-1,-1,-1,-1,-1,-1,-1,-1,-1,-1,-1,-1,-1,-1,-1,-1,-1,-1,-1,-1,-1,-1,-1,-1],"split_conditions":[6.3E0,5.625E0,7.505E0,5.6E0,8.616667E0,6.9E0,8.1E0,4.4E0,-1.3248904E-1,7.167E0,9.005E0,6.88E0,-1.3526423E-1,8.673333E0,7.222E0,4E0,3E0,9.5E0,7.667E0,8.673333E0,8.8E0,-1.2596385E-1,8.965E0,9.502E0,9.005E0,8.76E0,9.002E0,7.556E0,7.778E0,5.005E0,6.505E0,7.01E0,4E0,5.635E0,8.9E0,-4.5835353E-3,-1.02771E-1,1.2043482E-1,-4.6649083E-2,5E0,9.638417E-2,9.168E0,8.116667E0,7.52E0,7.8E0,7.918E0,1.13457434E-1,-1.1659639E-1,8.14E0,1.3361987E-1,7.508411E-2,6.530624E-2,-4.3654222E-2,-1.1923083E-1,1.3257255E-2,-5.870384E-2,6.301618E-2,1.8078905E-1,4.0337365E-2,-2.2561109E-2,6.370476E-2,8.3869465E-2,-2.6606707E-2,6.2336028E-2,1.4672297E-1,-2.1798706E-2,8.381548E-2,7.3836856E-2,-1.1507123E-3,1.2082026E-1,4.262997E-2,-8.792969E-2,-8.3650043E-4,1.310495E-1,2.577141E-2,3.4695175E-2,-4.1462347E-2,-2.1244623E-2,-9.8849475E-2],"split_indices":[1,1,1,1,0,1,1,1,0,0,0,1,0,0,0,4,4,2,0,0,2,0,0,2,0,1,2,0,0,1,0,0,4,1,2,0,0,0,0,4,0,2,0,1,2,2,0,0,1,0,0,0,0,0,0,0,0,0,0,0,0,0,0,0,0,0,0,0,0,0,0,0,0,0,0,0,0,0,0],"split_type":[0,0,0,0,0,0,0,0,0,0,0,0,0,0,0,0,0,0,0,0,0,0,0,0,0,0,0,0,0,0,0,0,0,0,0,0,0,0,0,0,0,0,0,0,0,0,0,0,0,0,0,0,0,0,0,0,0,0,0,0,0,0,0,0,0,0,0,0,0,0,0,0,0,0,0,0,0,0,0],"sum_hessian":[4.4484134E2,1.7643802E2,2.6840332E2,1.2476124E2,5.167678E1,1.2171049E2,1.4669284E2,1.10056725E2,1.4704509E1,4.5530155E1,6.1466246E0,2.106125E1,1.0064924E2,1.2195892E2,2.4733913E1,7.437243E1,3.5684303E1,1.703141E1,2.8498747E1,3.4061337E0,2.740491E0,8.072528E0,1.2988723E1,1.04119705E2,1.7839216E1,7.969533E0,1.676438E1,4.7017307E1,2.7355118E1,5.098501E0,3.05858E1,1.2884988E1,4.146423E0,9.49998E0,1.8998766E1,1.3666834E0,2.0394502E0,1.3751086E0,1.3653822E0,1.1810576E1,1.1781466E0,7.7612495E1,2.6507212E1,6.9896793E0,1.0849536E1,6.151201E0,1.8183324E0,6.9539413E0,9.810439E0,1.4422071E1,3.2595238E1,1.49496565E1,1.2405461E1,3.9737296E0,1.1247715E0,5.892592E0,2.4693209E1,1.1667549E1,1.2174387E0,1.4634237E0,2.6829991E0,3.1694841E0,6.330496E0,1.0573566E1,8.4252E0,1.0140007E1,1.6705687E0,6.8379196E1,9.233302E0,2.05233E1,5.9839125E0,2.5700989E0,4.4195805E0,1.9128511E0,8.936685E0,1.3808174E0,4.7703834E0,5.5261674E0,4.2842712E0],"tree_param":{"num_deleted":"0","num_feature":"6","num_nodes":"79","size_leaf_vector":"1"}},{"base_weights":[-6.446805E-3,-2.1726437E-1,3.8107067E-1,2.8792244E-1,-1.2953424E-1,5.6416106E-1,-5.2223235E-1,5.2466774E-1,9.904346E-2,8.1780106E-1,2.2364247E-1,-1.1553822E-1,-3.4572688E-1,6.4086944E-1,-3.0870754E-1,-2.6237989E-2,3.4930897E-1,8.638988E-1,-1.1958327E-1,1.2508112E-1,1.780245E-1,-1.4410955E-1,-7.682195E-1,4.078211E-1,1.1353154E0,-1.1132889E-1,3.9590192E-1,1.048516E-1,-1.1949196E-1,-5.5645645E-1,5.8935136E-1,9.74934E-1,6.3869405E-1,8.302766E-2,-7.6123506E-2,-1.8955305E-2,4.099385E-1,-4.6961743E-1,3.2050002E-1,6.5566925E-4,-9.6927E-1,6.798773E-2,-1.1960127E-1,1.4779381E-1,6.640073E-2,6.7855543E-3,8.694938E-2,6.980111E-2,-1.0812633E-3,-2.2682047E-2,-1.03781916E-1,7.882479E-2,-3.0899128E-2,6.034109E-2,1.1337315E-1,-9.2980236E-2,7.524387E-2,3.5754297E-2,-2.9636277E-2,1.5961751E-2,8.525807E-2,9.291111E-3,-1.1364515E-1,-7.8336604E-2,6.444949E-2,-2.312598E-2,-1.0885435E-1],"categories":[],"categories_nodes":[],"categories_segments":[],"categories_sizes":[],"default_left":[0,0,0,0,0,0,0,0,0,0,0,0,0,0,0,0,0,0,0,0,0,0,0,0,0,0,0,0,0,0,0,0,0,0,0,0,0,0,0,0,0,0,0,0,0,0,0,0,0,0,0,0,0,0,0,0,0,0,0,0,0,0,0,0,0,0,0],"id":4,"left_children":[1,3,5,7,-1,9,11,13,15,17,19,-1,21,23,25,27,29,31,33,-1,35,37,39,41,43,-1,45,47,-1,49,51,53,55,-1,-1,57,59,61,63,-1,65,-1,-1,-1,-1,-1,-1,-1,-1,-1,-1,-1,-1,-1,-1,-1,-1,-1,-1,-1,-1,-1,-1,-1,-1,-1,-1],"loss_changes":[3.5772263E1,1.5481572E2,2.5811445E1,8.618917E0,0E0,1.0938438E1,2.5644197E0,8.508444E0,3.4295607E0,3.2758942E0,2.4174967E0,0E0,1.7774844E0,8.253159E0,6.776973E0,1.140534E1,8.255661E0,1.1302261E0,3.2648416E0,0E0,2.5255492E0,2.6060452E0,1.0858307E0,2.3926064E1,2.8410091E0,0E0,9.813193E-1,4.612613E0,0E0,1.0582855E0,5.4804535E0,1.9738197E0,5.3468885E0,0E0,0E0,3.3184173E0,2.6735387E0,3.8391657E0,3.1097746E0,0E0,2.3318481E-1,0E0,0E0,0E0,0E0,0E0,0E0,0E0,0E0,0E0,0E0,0E0,0E0,0E0,0E0,0E0,0E0,0E0,0E0,0E0,0E0,0E0,0E0,0E0,0E0,0E0,0E0],"parents":[2147483647,0,0,1,1,2,2,3,3,5,5,6,6,7,7,8,8,9,9,10,10,12,12,13,13,14,14,15,15,16,16,17,17,18,18,20,20,21,21,22,22,23,23,24,24,26,26,27,27,29,29,30,30,31,31,32,32,35,35,36,36,37,37,38,38,40,40],"right_children":[2,4,6,8,-1,10,12,14,16,18,20,-1,22,24,26,28,30,32,34,-1,36,38,40,42,44,-1,46,48,-1,50,52,54,56,-1,-1,58,60,62,64,-1,66,-1,-1,-1,-1,-1,-1,-1,-1,-1,-1,-1,-1,-1,-1,-1,-1,-1,-1,-1,-1,-1,-1,-1,-1,-1,-1],"split_conditions":[7.505E0,6.9E0,8.1E0,8.5E0,-1.2953424E-1,8.954191E0,8.125E0,6.3E0,5.63E0,8.7975E0,6.265E0,-1.1553822E-1,8.333E0,5.625E0,6.5725E0,5.6E0,7.918E0,7.542E0,3.498E0,1.2508112E-1,7.52E0,8.4E0,8.409091E0,5.6E0,7E0,-1.1132889E-1,7.7272725E0,5.4E0,-1.1949196E-1,8.5E0,8.673333E0,6.8E0,7.585E0,8.302766E-2,-7.6123506E-2,7.835E0,9.619047E0,7.12E0,7.083E0,6.5566925E-4,8.9E0,6.798773E-2,-1.1960127E-1,1.4779381E-1,6.640073E-2,6.7855543E-3,8.694938E-2,6.980111E-2,-1.0812633E-3,-2.2682047E-2,-1.03781916E-1,7.882479E-2,-3.0899128E-2,6.034109E-2,1.1337315E-1,-9.2980236E-2,7.524387E-2,3.5754297E-2,-2.9636277E-2,1.5961751E-2,8.525807E-2,9.291111E-3,-1.1364515E-1,-7.8336604E-2,6.444949E-2,-2.312598E-2,-1.0885435E-1],"split_indices":[1,1,1,3,0,3,1,1,1,0,0,0,0,1,1,1,2,0,2,0,1,3,3,1,0,0,3,2,0,0,0,3,0,0,0,0,3,0,0,0,2,0,0,0,0,0,0,0,0,0,0,0,0,0,0,0,0,0,0,0,0,0,0,0,0,0,0],"split_type":[0,0,0,0,0,0,0,0,0,0,0,0,0,0,0,0,0,0,0,0,0,0,0,0,0,0,0,0,0,0,0,0,0,0,0,0,0,0,0,0,0,0,0,0,0,0,0,0,0,0,0,0,0,0,0,0,0,0,0,0,0,0,0,0,0,0,0],"sum_hessian":[4.358597E2,2.825733E2,1.532864E2,1.9290913E2,8.9664185E1,1.2776515E2,2.5521257E1,8.481821E1,1.0809092E2,7.242027E1,5.534488E1,4.3546486E0,2.1166609E1,7.4641556E1,1.0176653E1,7.262862E1,3.5462303E1,6.910051E1,3.3197627E0,1.2300003E0,5.4114876E1,1.5236638E1,5.9299693E0,5.197083E1,2.2670727E1,4.480471E0,5.696182E0,6.612207E1,6.506549E0,7.15307E0,2.8309233E1,4.4051975E1,2.5048534E1,1.2199137E0,2.099849E0,2.9757847E1,2.4357029E1,8.953201E0,6.2834373E0,1.4210693E0,4.5089E0,4.4926155E1,7.0446734E0,1.1890775E1,1.0779951E1,4.0406165E0,1.6555651E0,9.9680805E0,5.6153988E1,5.1188793E0,2.0341907E0,2.3277958E1,5.0312753E0,1.4628039E1,2.9423937E1,1.2085536E0,2.383998E1,1.250167E1,1.7256178E1,1.642758E1,7.9294496E0,5.3232646E0,3.6299365E0,1.1040503E0,5.179387E0,1.0362095E0,3.4726906E0],"tree_param":{"num_deleted":"0","num_feature":"6","num_nodes":"67","size_leaf_vector":"1"}},{"base_weights":[2.5600032E-3,-1.2211287E-1,4.4825964E-2,1.6503729E-1,-5.0190452E-2,-2.5697214E-5,3.4256172E-1,1.9288008E-1,-1.3815977E-1,-8.9073695E-2,8.855013E-1,2.977483E-1,1.0960861E-1,-3.3746895E-1,3.257029E-1,-6.0216606E-1,-5.104833E-2,7.258568E-1,-1.1815532E-1,1.2489954E0,-6.2307876E-2,5.728637E-1,1.7540844E-1,2.777152E-1,-8.0687183E-1,6.9200087E-1,1.51535E-1,-1.3345857E-1,-1.1929097E0,9.188018E-2,-4.157078E-1,1.38300015E-2,9.5689744E-2,-3.1484157E-2,4.6984843E-4,1.3811217E-1,3.1512957E-2,6.32848E-2,-4.063851E-2,6.454895E-2,3.0725694E-3,-6.609285E-2,8.163264E-2,-1.1753734E-1,-2.2818837E-3,-4.8535194E-2,8.405858E-2,-5.523468E-2,2.6719779E-2,3.3697288E-3,-8.080025E-2,-1.2427683E-1,-3.8702723E-2,-1.9269397E-2,3.327707E-2,-2.6078315E-3,-6.892609E-2],"categories":[],"categories_nodes":[],"categories_segments":[],"categories_sizes":[],"default_left":[0,0,0,0,0,0,0,0,0,0,0,0,0,0,0,0,0,0,0,0,0,0,0,0,0,0,0,0,0,0,0,0,0,0,0,0,0,0,0,0,0,0,0,0,0,0,0,0,0,0,0,0,0,0,0,0,0],"id":5,"left_children":[1,-1,3,5,7,9,11,13,15,17,19,21,-1,23,25,27,29,31,33,35,-1,37,39,41,43,45,47,49,51,53,55,-1,-1,-1,-1,-1,-1,-1,-1,-1,-1,-1,-1,-1,-1,-1,-1,-1,-1,-1,-1,-1,-1,-1,-1,-1,-1],"loss_changes":[2.2680635E1,0E0,4.849232E0,5.4895434E0,5.1047535E0,7.81264E0,2.7216215E0,4.5848436E0,7.04119E0,2.2192822E0,5.742391E0,2.8132024E0,0E0,4.0399885E0,3.168684E0,7.4723597E0,7.77273E0,3.077458E-1,2.1226099E0,5.0595284E-1,0E0,1.7964573E0,4.1536517E0,3.80702E0,2.2127318E0,3.2515907E0,3.0830576E0,1.8870417E0,3.8967133E-3,7.428611E0,4.455098E0,0E0,0E0,0E0,0E0,0E0,0E0,0E0,0E0,0E0,0E0,0E0,0E0,0E0,0E0,0E0,0E0,0E0,0E0,0E0,0E0,0E0,0E0,0E0,0E0,0E0,0E0],"parents":[2147483647,0,0,2,2,3,3,4,4,5,5,6,6,7,7,8,8,9,9,10,10,11,11,13,13,14,14,15,15,16,16,17,17,18,18,19,19,21,21,22,22,23,23,24,24,25,25,26,26,27,27,28,28,29,29,30,30],"right_children":[2,-1,4,6,8,10,12,14,16,18,20,22,-1,24,26,28,30,32,34,36,-1,38,40,42,44,46,48,50,52,54,56,-1,-1,-1,-1,-1,-1,-1,-1,-1,-1,-1,-1,-1,-1,-1,-1,-1,-1,-1,-1,-1,-1,-1,-1,-1,-1],"split_conditions":[2E0,-1.2211287E-1,8.5E0,7.4358974E0,6.25E0,5E0,8.409091E0,6.958E0,6.7E0,4.292E0,6.9E0,7.8E0,1.0960861E-1,8.8E0,7.5E0,6.6666665E0,4E0,4.2E0,6.505E0,5.2E0,-6.2307876E-2,8.6E0,6.833E0,8.555555E0,9.231482E0,3.3333333E0,4.3333335E0,8.673333E0,8.208E0,9.347826E0,8.0425E0,1.38300015E-2,9.5689744E-2,-3.1484157E-2,4.6984843E-4,1.3811217E-1,3.1512957E-2,6.32848E-2,-4.063851E-2,6.454895E-2,3.0725694E-3,-6.609285E-2,8.163264E-2,-1.1753734E-1,-2.2818837E-3,-4.8535194E-2,8.405858E-2,-5.523468E-2,2.6719779E-2,3.3697288E-3,-8.080025E-2,-1.2427683E-1,-3.8702723E-2,-1.9269397E-2,3.327707E-2,-2.6078315E-3,-6.892609E-2],"split_indices":[4,0,3,3,5,4,3,0,5,0,3,3,0,3,0,5,4,3,0,5,0,5,0,3,3,5,5,0,0,3,0,0,0,0,0,0,0,0,0,0,0,0,0,0,0,0,0,0,0,0,0,0,0,0,0,0,0],"split_type":[0,0,0,0,0,0,0,0,0,0,0,0,0,0,0,0,0,0,0,0,0,0,0,0,0,0,0,0,0,0,0,0,0,0,0,0,0,0,0,0,0,0,0,0,0,0,0,0,0,0,0,0,0,0,0,0,0],"sum_hessian":[4.364658E2,1.3640918E1,4.228249E2,1.8633882E2,2.3648607E2,9.707651E1,8.9262314E1,6.2526028E1,1.7396004E2,8.902375E1,8.052756E0,8.556854E1,3.6937697E0,1.2214387E1,5.031164E1,2.656212E1,1.4739792E2,2.2418878E0,8.678186E1,6.6278424E0,1.4249139E0,2.520515E1,6.0363396E1,5.4630527E0,6.751334E0,1.5255062E1,3.505658E1,1.5494446E1,1.1067676E1,1.06430466E2,4.096745E1,1.0839367E0,1.1579511E0,3.2764263E1,5.40176E1,5.3867755E0,1.2410666E0,2.408364E1,1.1215106E0,1.3391705E1,4.697169E1,1.9090436E0,3.5540092E0,4.253233E0,2.498101E0,1.4555027E0,1.3799559E1,4.4147162E0,3.0641863E1,1.3178726E1,2.3157198E0,9.912299E0,1.1553768E0,4.888299E1,5.7547474E1,1.735028E1,2.3617168E1],"tree_param":{"num_deleted":"0","num_feature":"6","num_nodes":"57","size_leaf_vector":"1"}},{"base_weights":[1.4020109E-2,-1.8017463E-1,3.8268542E-1,2.518757E-1,-1.251941E-1,5.54773E-1,-5.1317114E-1,5.2114886E-1,1.3708028E-1,6.35616E-1,9.6275914E-4,-1.6406845E-1,-9.048235E-1,8.9399076E-1,4.3110687E-2,-1.4995812E-1,3.9951143E-1,7.0303196E-1,5.7069816E-2,-2.6223978E-1,1.4810659E-1,-3.5219395E-1,7.0738785E-2,-1.1453855E-1,-5.667754E-1,2.3794521E-1,1.135238E0,1.100335E0,-4.8722452E-1,1.2905344E-1,-1.235101E-1,6.4426315E-1,-2.2948144E-1,7.943096E-1,4.4470823E-1,-2.5223336E-1,8.058078E-2,8.621047E-2,-4.209505E-1,1.2619822E-1,-6.0284245E-1,1.6860675E-2,-8.760243E-1,-4.1310668E-2,7.044425E-2,1.3474055E-1,7.480484E-2,1.6853267E-1,5.2861746E-2,-7.63286E-2,-1.6286978E-2,-4.544015E-4,1.0007733E-1,7.804939E-2,-3.454722E-2,-1.1833669E-1,3.4383245E-2,1.8789573E-2,8.802875E-2,1.2858346E-1,1.0366739E-2,6.533619E-2,-6.1142523E-2,-7.334394E-2,1.2091871E-2,5.155715E-2,-7.111686E-2,-1.1248863E-1,-4.1611763E-3,-9.9182084E-2,-2.2577329E-2],"categories":[],"categories_nodes":[],"categories_segments":[],"categories_sizes":[],"default_left":[0,0,0,0,0,0,0,0,0,0,0,0,0,0,0,0,0,0,0,0,0,0,0,0,0,0,0,0,0,0,0,0,0,0,0,0,0,0,0,0,0,0,0,0,0,0,0,0,0,0,0,0,0,0,0,0,0,0,0,0,0,0,0,0,0,0,0,0,0,0,0],"id":6,"left_children":[1,3,5,7,-1,9,11,13,15,17,19,21,23,25,27,29,31,33,35,37,-1,39,-1,-1,41,43,45,47,49,51,-1,53,55,57,59,61,-1,-1,63,65,67,-1,69,-1,-1,-1,-1,-1,-1,-1,-1,-1,-1,-1,-1,-1,-1,-1,-1,-1,-1,-1,-1,-1,-1,-1,-1,-1,-1,-1,-1],"loss_changes":[3.0789322E1,1.3077383E2,2.3157518E1,6.1609926E0,0E0,5.5930786E0,3.191361E0,1.0638807E1,1.081041E1,4.2120934E0,6.9784336E0,2.5667183E0,2.6897717E-1,5.0486603E0,1.5843243E1,2.101689E1,1.1667199E1,1.9470406E0,3.0903182E0,3.077396E0,0E0,1.5502548E0,0E0,0E0,1.6653945E0,3.4194202E0,9.887409E-1,2.2619476E0,1.5656886E0,6.491914E0,0E0,7.5679836E0,1.2272814E1,3.5266418E0,7.824971E0,3.5168786E0,0E0,0E0,2.4596407E0,2.0144145E0,2.3675482E0,0E0,1.4197016E-1,0E0,0E0,0E0,0E0,0E0,0E0,0E0,0E0,0E0,0E0,0E0,0E0,0E0,0E0,0E0,0E0,0E0,0E0,0E0,0E0,0E0,0E0,0E0,0E0,0E0,0E0,0E0,0E0],"parents":[2147483647,0,0,1,1,2,2,3,3,5,5,6,6,7,7,8,8,9,9,10,10,11,11,12,12,13,13,14,14,15,15,16,16,17,17,18,18,19,19,21,21,24,24,25,25,26,26,27,27,28,28,29,29,31,31,32,32,33,33,34,34,35,35,38,38,39,39,40,40,42,42],"right_children":[2,4,6,8,-1,10,12,14,16,18,20,22,24,26,28,30,32,34,36,38,-1,40,-1,-1,42,44,46,48,50,52,-1,54,56,58,60,62,-1,-1,64,66,68,-1,70,-1,-1,-1,-1,-1,-1,-1,-1,-1,-1,-1,-1,-1,-1,-1,-1,-1,-1,-1,-1,-1,-1,-1,-1,-1,-1,-1,-1],"split_conditions":[7.505E0,6.9E0,8.1E0,3.755E0,-1.251941E-1,8.673333E0,7.833E0,8.954191E0,5.625E0,9.761905E0,1.001E1,7.665E0,4E0,7.3291926E0,8.053333E0,5.6E0,6.3E0,4E0,8.389E0,7.9656863E0,1.4810659E-1,6.5E0,7.0738785E-2,-1.1453855E-1,8.722222E0,2.52E0,8.444445E0,7.545E0,8.5633335E0,5.005E0,-1.235101E-1,8.59E0,6.88E0,6.8E0,7.0108695E0,3E0,8.058078E-2,8.621047E-2,9.69697E0,6.9966664E0,7.09E0,1.6860675E-2,9.737667E0,-4.1310668E-2,7.044425E-2,1.3474055E-1,7.480484E-2,1.6853267E-1,5.2861746E-2,-7.63286E-2,-1.6286978E-2,-4.544015E-4,1.0007733E-1,7.804939E-2,-3.454722E-2,-1.1833669E-1,3.4383245E-2,1.8789573E-2,8.802875E-2,1.2858346E-1,1.0366739E-2,6.533619E-2,-6.1142523E-2,-7.334394E-2,1.2091871E-2,5.155715E-2,-7.111686E-2,-1.1248863E-1,-4.1611763E-3,-9.9182084E-2,-2.2577329E-2],"split_indices":[1,1,1,1,0,0,0,3,1,3,0,0,4,3,0,1,1,4,0,3,0,3,0,0,3,1,3,0,0,1,0,0,1,3,3,4,0,0,3,0,0,0,3,0,0,0,0,0,0,0,0,0,0,0,0,0,0,0,0,0,0,0,0,0,0,0,0,0,0,0,0],"split_type":[0,0,0,0,0,0,0,0,0,0,0,0,0,0,0,0,0,0,0,0,0,0,0,0,0,0,0,0,0,0,0,0,0,0,0,0,0,0,0,0,0,0,0,0,0,0,0,0,0,0,0,0,0,0,0,0,0,0,0,0,0,0,0,0,0,0,0,0,0,0,0],"sum_hessian":[4.2809824E2,2.8073312E2,1.4736511E2,2.0062299E2,8.011013E1,1.2393822E2,2.34269E1,5.8906788E1,1.417162E2,1.080219E2,1.5916322E1,1.313649E1,1.0290411E1,3.2605934E1,2.6300854E1,6.78895E1,7.382669E1,9.655545E1,1.1466443E1,1.4211885E1,1.7044362E0,1.12942095E1,1.8422801E0,4.6167817E0,5.673629E0,9.300515E0,2.3305418E1,8.42694E0,1.7873915E1,5.470488E1,1.3184627E1,5.3129017E1,2.0697676E1,6.981261E1,2.6742847E1,8.58366E0,2.8827827E0,1.2097566E0,1.300213E1,4.05372E0,7.2404895E0,1.8142347E0,3.859394E0,3.930078E0,5.370437E0,1.3453421E1,9.851998E0,3.2023783E0,5.2245617E0,8.924738E0,8.949177E0,4.829769E1,6.407187E0,4.6886765E1,6.2422523E0,7.3704925E0,1.3327183E1,9.0645485E0,6.0748055E1,6.9157805E0,1.9827066E1,2.205123E0,6.3785377E0,8.022261E0,4.9798684E0,3.0293672E0,1.024353E0,3.230879E0,4.0096107E0,2.8301184E0,1.0292758E0],"tree_param":{"num_deleted":"0","num_feature":"6","num_nodes":"71","size_leaf_vector":"1"}},{"base_weights":[-3.350601E-2,-2.2920294E-1,3.1090307E-1,1.668024E-1,-1.214502E-1,4.7212872E-1,-5.1299477E-1,4.0597665E-1,2.1982154E-2,6.2996864E-1,2.4710017E-1,5.1791042E-2,-6.0376203E-1,6.7623883E-1,6.364217E-2,-4.4427E-1,3.5935172E-1,6.9138825E-1,5.0492965E-2,-3.356187E-2,6.2220204E-1,-1.001645E0,-3.0456123E-1,4.6587202E-1,1.31671E0,7.9787856E-1,-1.7218776E-1,-1.6322565E-1,-1.1954784E-1,6.1757153E-1,-3.7037975E-1,4.3783867E-1,9.0184265E-1,-3.4876677E-1,7.237526E-2,-6.550966E-1,8.497679E-2,8.692102E-1,-1.9404662E-1,-1.1506535E-1,-9.880659E-3,1.697228E-1,-5.987363E-1,6.0394984E-2,-3.3642806E-2,3.8977485E-2,1.7745566E-1,1.329535E-1,9.017039E-3,-1.0768857E-1,1.0481904E-2,-3.6424432E-2,6.903211E-2,7.3793605E-2,-5.217115E-2,-1.1338309E-1,1.39171975E-2,5.0054695E-2,-4.3976925E-2,1.2879013E-1,5.6080278E-2,2.8215244E-2,-6.783529E-2,-1.6075725E-2,-8.938595E-2,5.5669177E-2,-1.2834017E-2,1.3543601E-1,6.799112E-2,-4.891325E-2,3.8418714E-2,-7.69115E-2,5.2211355E-2,3.688067E-2,-8.1681386E-2],"categories":[],"categories_nodes":[],"categories_segments":[],"categories_sizes":[],"default_left":[0,0,0,0,0,0,0,0,0,0,0,0,0,0,0,0,0,0,0,0,0,0,0,0,0,0,0,0,0,0,0,0,0,0,0,0,0,0,0,0,0,0,0,0,0,0,0,0,0,0,0,0,0,0,0,0,0,0,0,0,0,0,0,0,0,0,0,0,0,0,0,0,0,0,0],"id":7,"left_children":[1,3,5,7,-1,9,11,13,15,17,19,-1,21,23,25,27,29,31,33,35,37,39,41,43,45,47,49,51,-1,53,55,57,59,61,-1,63,65,67,69,-1,-1,71,73,-1,-1,-1,-1,-1,-1,-1,-1,-1,-1,-1,-1,-1,-1,-1,-1,-1,-1,-1,-1,-1,-1,-1,-1,-1,-1,-1,-1,-1,-1,-1,-1],"loss_changes":[2.8790758E1,1.0644599E2,2.0806923E1,6.749054E0,0E0,4.461712E0,2.728404E0,6.75957E0,1.9441614E1,2.6615124E0,5.8362103E0,0E0,2.5745745E0,4.908533E0,5.945276E0,1.0763882E1,1.3734188E1,3.2561607E0,2.4940605E0,2.4534953E0,4.945615E0,1.2242813E0,2.2284465E0,3.7922878E0,3.3764172E0,3.0149784E0,6.6812725E0,6.931636E0,0E0,7.696022E0,7.6884985E0,2.0349588E0,4.076088E0,1.42027E0,0E0,4.8513365E-1,2.9108682E0,7.663336E-1,1.2665713E0,0E0,0E0,2.589915E0,2.332969E0,0E0,0E0,0E0,0E0,0E0,0E0,0E0,0E0,0E0,0E0,0E0,0E0,0E0,0E0,0E0,0E0,0E0,0E0,0E0,0E0,0E0,0E0,0E0,0E0,0E0,0E0,0E0,0E0,0E0,0E0,0E0,0E0],"parents":[2147483647,0,0,1,1,2,2,3,3,5,5,6,6,7,7,8,8,9,9,10,10,12,12,13,13,14,14,15,15,16,16,17,17,18,18,19,19,20,20,21,21,22,22,23,23,24,24,25,25,26,26,27,27,29,29,30,30,31,31,32,32,33,33,35,35,36,36,37,37,38,38,41,41,42,42],"right_children":[2,4,6,8,-1,10,12,14,16,18,20,-1,22,24,26,28,30,32,34,36,38,40,42,44,46,48,50,52,-1,54,56,58,60,62,-1,64,66,68,70,-1,-1,72,74,-1,-1,-1,-1,-1,-1,-1,-1,-1,-1,-1,-1,-1,-1,-1,-1,-1,-1,-1,-1,-1,-1,-1,-1,-1,-1,-1,-1,-1,-1,-1,-1],"split_conditions":[7.505E0,6.9E0,8.1E0,4.4E0,-1.214502E-1,9.035714E0,3.2E0,8.831746E0,5.625E0,8.6E0,8E0,5.1791042E-2,8.221289E0,8.255E0,7.7525E0,5.6E0,6.3E0,5.9E0,8.555555E0,9.231482E0,9.25E0,9.375E0,7.833E0,3.77E0,6.3333335E0,6.6E0,9.231482E0,5.005E0,-1.1954784E-1,9.824561E0,6.88E0,5.8E0,6.9333334E0,7.84689E0,7.237526E-2,7.9575E0,9.498366E0,9.285714E0,9.085E0,-1.1506535E-1,-9.880659E-3,7.134E0,6.8166666E0,6.0394984E-2,-3.3642806E-2,3.8977485E-2,1.7745566E-1,1.329535E-1,9.017039E-3,-1.0768857E-1,1.0481904E-2,-3.6424432E-2,6.903211E-2,7.3793605E-2,-5.217115E-2,-1.1338309E-1,1.39171975E-2,5.0054695E-2,-4.3976925E-2,1.2879013E-1,5.6080278E-2,2.8215244E-2,-6.783529E-2,-1.6075725E-2,-8.938595E-2,5.5669177E-2,-1.2834017E-2,1.3543601E-1,6.799112E-2,-4.891325E-2,3.8418714E-2,-7.69115E-2,5.2211355E-2,3.688067E-2,-8.1681386E-2],"split_indices":[1,1,1,1,0,3,5,3,1,5,5,0,3,0,0,1,1,5,3,3,5,1,0,1,5,5,3,1,0,3,1,5,5,3,0,0,3,3,0,0,0,0,5,0,0,0,0,0,0,0,0,0,0,0,0,0,0,0,0,0,0,0,0,0,0,0,0,0,0,0,0,0,0,0,0],"split_type":[0,0,0,0,0,0,0,0,0,0,0,0,0,0,0,0,0,0,0,0,0,0,0,0,0,0,0,0,0,0,0,0,0,0,0,0,0,0,0,0,0,0,0,0,0,0,0,0,0,0,0,0,0,0,0,0,0,0,0,0,0,0,0,0,0,0,0,0,0,0,0,0,0,0,0],"sum_hessian":[4.2510657E2,2.7129074E2,1.5381581E2,1.9410712E2,7.718363E1,1.2899934E2,2.481647E1,7.252574E1,1.21581375E2,7.476092E1,5.423843E1,1.6273725E0,2.3189096E1,3.998415E1,3.2541588E1,5.0908226E1,7.067315E1,6.742165E1,7.3392634E0,3.1545616E1,2.2692814E1,8.945484E0,1.4243613E1,3.1398502E1,8.585649E0,7.3316965E0,2.5209892E1,3.7933655E1,1.2974571E1,5.231491E1,1.8358242E1,3.1977049E1,3.5444603E1,4.909676E0,2.4295876E0,4.327702E0,2.7217913E1,1.7371172E1,5.321641E0,7.4426336E0,1.5028503E0,5.6145706E0,8.629043E0,2.6999113E1,4.399388E0,3.4507473E0,5.134901E0,3.6848521E0,3.6468441E0,5.232638E0,1.9977255E1,3.116682E1,6.7668347E0,4.7634624E1,4.6802864E0,6.8579535E0,1.1500288E1,3.0245543E1,1.7315063E0,1.532277E1,2.0121832E1,1.7340816E0,3.1755943E0,1.9544538E0,2.373248E0,7.974325E0,1.9243587E1,3.1481762E0,1.4222996E1,3.6255379E0,1.6961031E0,1.2095449E0,4.405026E0,1.4600554E0,7.168987E0],"tree_param":{"num_deleted":"0","num_feature":"6","num_nodes":"75","size_leaf_vector":"1"}},{"base_weights":[3.0894747E-2,-1.5741935E-1,3.567457E-1,2.281616E-1,-1.16747156E-1,4.8640764E-1,-4.1158763E-1,6.586426E-1,1.6308518E-1,5.9674764E-1,2.6900548E-1,-7.425662E-2,-8.7373805E-1,-2.6536602E-1,8.035078E-1,4.0057766E-1,2.499871E-2,5.193431E-1,1.12538E-1,-1.5610415E-2,4.8424298E-1,-9.13926E-2,1.3500184E-1,-1.0862154E-1,-4.7205254E-1,2.021971E-2,-5.87988E-2,-6.575359E-2,9.703561E-1,8.117004E-1,1.8426916E-1,-4.9460694E-1,3.412824E-1,7.811009E-1,4.003262E-1,-8.9010453E-1,3.454775E-1,7.889367E-1,-1.1736069E-1,1.0441935E-1,-1.62433E-1,6.888566E-3,-8.709654E-2,-3.0250326E-2,1.5396619E-2,1.04805194E-1,-3.4328904E-3,1.3435398E-1,5.3890582E-2,-1.0687083E-1,3.2086205E-2,-1.9569023E-2,-1.1549735E-1,5.471122E-2,-1.8941812E-2,1.1185288E-1,-3.789515E-2,7.0377275E-2,1.0885126E-2,-4.4779032E-2,-1.1962735E-1,7.011302E-2,-3.2082372E-3,9.963506E-2,-3.1343576E-2,4.6431657E-2,-7.458642E-2,1.6518801E-2,-7.722331E-2],"categories":[],"categories_nodes":[],"categories_segments":[],"categories_sizes":[],"default_left":[0,0,0,0,0,0,0,0,0,0,0,0,0,0,0,0,0,0,0,0,0,0,0,0,0,0,0,0,0,0,0,0,0,0,0,0,0,0,0,0,0,0,0,0,0,0,0,0,0,0,0,0,0,0,0,0,0,0,0,0,0,0,0,0,0,0,0,0,0],"id":8,"left_children":[1,3,5,7,-1,9,11,13,15,17,19,21,23,25,27,29,31,33,-1,35,37,-1,39,-1,41,-1,-1,43,45,47,49,51,53,55,57,59,61,63,65,-1,67,-1,-1,-1,-1,-1,-1,-1,-1,-1,-1,-1,-1,-1,-1,-1,-1,-1,-1,-1,-1,-1,-1,-1,-1,-1,-1,-1,-1],"loss_changes":[2.562996E1,1.0340199E2,1.5437437E1,5.285096E0,0E0,2.989647E0,3.4624445E0,3.552803E0,5.5172796E0,2.9463863E0,2.8275194E0,2.6135268E0,2.941246E-1,7.423483E-1,3.2278633E0,5.3552065E0,1.785911E1,2.0900364E0,0E0,6.8725057E0,4.902904E0,0E0,3.4731464E0,0E0,1.1474097E0,0E0,0E0,2.7803814E-1,1.4696407E0,2.3294754E0,7.5061097E0,7.894429E0,7.47743E0,9.448516E0,4.794174E0,3.2499218E-1,2.0951138E0,4.324856E0,3.8899505E0,0E0,2.1394176E0,0E0,0E0,0E0,0E0,0E0,0E0,0E0,0E0,0E0,0E0,0E0,0E0,0E0,0E0,0E0,0E0,0E0,0E0,0E0,0E0,0E0,0E0,0E0,0E0,0E0,0E0,0E0,0E0],"parents":[2147483647,0,0,1,1,2,2,3,3,5,5,6,6,7,7,8,8,9,9,10,10,11,11,12,12,13,13,14,14,15,15,16,16,17,17,19,19,20,20,22,22,24,24,27,27,28,28,29,29,30,30,31,31,32,32,33,33,34,34,35,35,36,36,37,37,38,38,40,40],"right_children":[2,4,6,8,-1,10,12,14,16,18,20,22,24,26,28,30,32,34,-1,36,38,-1,40,-1,42,-1,-1,44,46,48,50,52,54,56,58,60,62,64,66,-1,68,-1,-1,-1,-1,-1,-1,-1,-1,-1,-1,-1,-1,-1,-1,-1,-1,-1,-1,-1,-1,-1,-1,-1,-1,-1,-1,-1,-1],"split_conditions":[7.505E0,6.9E0,8.1E0,4.6E0,-1.16747156E-1,8.0425E0,7.833E0,6.444E0,4.4E0,9.6E0,7.52E0,8.13E0,9.002E0,5.66E0,3E0,7.545E0,5.625E0,3E0,1.12538E-1,8.173333E0,9.002E0,-9.13926E-2,3E0,-1.0862154E-1,9.5E0,2.021971E-2,-5.87988E-2,8.165E0,6.3E0,3E0,7.3E0,5.6E0,6.3E0,7.52E0,7.196E0,3E0,8.4975E0,4E0,8.7975E0,1.0441935E-1,7.333E0,6.888566E-3,-8.709654E-2,-3.0250326E-2,1.5396619E-2,1.04805194E-1,-3.4328904E-3,1.3435398E-1,5.3890582E-2,-1.0687083E-1,3.2086205E-2,-1.9569023E-2,-1.1549735E-1,5.471122E-2,-1.8941812E-2,1.1185288E-1,-3.789515E-2,7.0377275E-2,1.0885126E-2,-4.4779032E-2,-1.1962735E-1,7.011302E-2,-3.2082372E-3,9.963506E-2,-3.1343576E-2,4.6431657E-2,-7.458642E-2,1.6518801E-2,-7.722331E-2],"split_indices":[1,1,1,2,0,0,0,0,1,2,1,1,2,0,4,0,1,4,0,0,2,0,4,0,2,0,0,0,1,4,2,1,1,1,0,4,0,4,0,0,0,0,0,0,0,0,0,0,0,0,0,0,0,0,0,0,0,0,0,0,0,0,0,0,0,0,0,0,0],"split_type":[0,0,0,0,0,0,0,0,0,0,0,0,0,0,0,0,0,0,0,0,0,0,0,0,0,0,0,0,0,0,0,0,0,0,0,0,0,0,0,0,0,0,0,0,0,0,0,0,0,0,0,0,0,0,0,0,0,0,0,0,0,0,0,0,0,0,0,0,0],"sum_hessian":[4.1576712E2,2.6381906E2,1.5194806E2,1.9149225E2,7.232683E1,1.3032216E2,2.16259E1,2.3948921E1,1.6754332E2,8.528952E1,4.503264E1,1.31720705E1,8.453829E0,3.1330779E0,2.0815844E1,6.0900574E1,1.06642746E2,7.612535E1,9.164166E0,1.979048E1,2.5242157E1,1.9559971E0,1.1216074E1,4.414547E0,4.0392823E0,1.4315946E0,1.7014832E0,3.449619E0,1.7366224E1,2.004669E1,4.0853886E1,4.0138134E1,6.6504616E1,2.2055346E1,5.4070007E1,5.3554406E0,1.44350395E1,1.6549139E1,8.693018E0,2.1458938E0,9.07018E0,2.0655923E0,1.9736903E0,1.4791045E0,1.9705144E0,1.607957E1,1.2866542E0,5.4656954E0,1.4580995E1,3.3450882E0,3.7508797E1,2.8523315E1,1.16148205E1,4.789704E1,1.8607573E1,1.7113335E1,4.9420114E0,2.5797949E1,2.8272058E1,3.1979728E0,2.1574678E0,6.9918623E0,7.4431767E0,1.4009413E1,2.539727E0,4.650362E0,4.0426555E0,6.374519E0,2.6956608E0],"tree_param":{"num_deleted":"0","num_feature":"6","num_nodes":"69","size_leaf_vector":"1"}},{"base_weights":[-4.149261E-2,-1.13917984E-1,-8.531444E-3,-2.4121592E-2,7.844155E-2,2.9345572E-1,-6.391863E-2,-3.0003336E-1,4.6447784E-1,-5.251948E-1,-4.2522255E-2,-9.318906E-2,-7.48247E-2,-4.012986E-1,5.543742E-1,-8.227742E-1,-1.4522551E-1,6.552961E-2,-1.3496499E-1,-6.7374654E-2,3.500811E-2,1.104104E-2,-8.1139594E-2,8.23155E-2,2.3506908E-2,-1.1081272E-1,-4.5628536E-2,4.614463E-2,-3.6201656E-2,-2.6269423E-4,9.20903E-2,-7.7075535E-4,-4.494969E-2],"categories":[],"categories_nodes":[],"categories_segments":[],"categories_sizes":[],"default_left":[0,0,0,0,0,0,0,0,0,0,0,0,0,0,0,0,0,0,0,0,0,0,0,0,0,0,0,0,0,0,0,0,0],"id":9,"left_children":[1,-1,3,5,-1,7,9,11,13,15,17,19,-1,21,23,25,27,29,31,-1,-1,-1,-1,-1,-1,-1,-1,-1,-1,-1,-1,-1,-1],"loss_changes":[1.4710363E1,0E0,4.9142385E0,4.9393167E0,0E0,4.5580597E0,3.4003863E0,8.894705E-1,2.8833203E0,1.6087871E0,3.3301346E0,2.3516128E0,0E0,8.861812E-1,2.5006514E0,3.6838484E-1,1.2096775E0,8.979559E0,7.1822624E0,0E0,0E0,0E0,0E0,0E0,0E0,0E0,0E0,0E0,0E0,0E0,0E0,0E0,0E0],"parents":[2147483647,0,0,2,2,3,3,5,5,6,6,7,7,8,8,9,9,10,10,11,11,13,13,14,14,15,15,16,16,17,17,18,18],"right_children":[2,-1,4,6,-1,8,10,12,14,16,18,20,-1,22,24,26,28,30,32,-1,-1,-1,-1,-1,-1,-1,-1,-1,-1,-1,-1,-1,-1],"split_conditions":[2E0,-1.13917984E-1,9.84E0,3.8E0,7.844155E-2,2.1666667E0,4.2E0,7.01E0,4.6E0,7.4E0,6.8E0,5.88E0,-7.48247E-2,5.7833333E0,6.722E0,6.2075E0,4E0,6.7E0,4E0,-6.7374654E-2,3.500811E-2,1.104104E-2,-8.1139594E-2,8.23155E-2,2.3506908E-2,-1.1081272E-1,-4.5628536E-2,4.614463E-2,-3.6201656E-2,-2.6269423E-4,9.20903E-2,-7.7075535E-4,-4.494969E-2],"split_indices":[4,0,0,5,0,5,5,0,3,3,5,0,0,0,0,0,5,5,4,0,0,0,0,0,0,0,0,0,0,0,0,0,0],"split_type":[0,0,0,0,0,0,0,0,0,0,0,0,0,0,0,0,0,0,0,0,0,0,0,0,0,0,0,0,0,0,0,0,0],"sum_hessian":[4.0584506E2,1.0852984E1,3.9499207E2,3.8832675E2,6.6653223E0,4.25341E1,3.4579266E2,9.346181E0,3.3187916E1,1.4284862E1,3.3150778E2,7.2214804E0,2.1246998E0,2.79601E0,3.0391907E1,7.357412E0,6.9274497E0,1.5298367E2,1.7852412E2,2.9014556E0,4.320025E0,1.5690099E0,1.2270001E0,1.5644726E1,1.4747181E1,2.9988418E0,4.3585706E0,1.5266672E0,5.400782E0,1.4261682E2,1.0366846E1,1.2782964E2,5.069448E1],"tree_param":{"num_deleted":"0","num_feature":"6","num_nodes":"33","size_leaf_vector":"1"}},{"base_weights":[-1.4857015E-2,2.4893838E-1,-2.0123672E-1,1.5580317E-1,4.6678853E-1,-9.162455E-1,2.3635845E-1,2.8853047E-1,-1.1246922E-1,7.7813464E-1,-2.298358E-2,-1.8892716E-1,-1.1206595E-1,3.6316285E-1,-4.707873E-1,3.9657497E-1,6.549483E-2,1.111433E0,5.1490206E-1,4.2663038E-1,-7.152024E-1,-1.0812731E-1,2.5082558E-1,9.077256E-1,2.972795E-1,5.060069E-2,-5.929311E-1,4.7931063E-1,-3.8041604E-1,-1.2528709E-1,8.7691104E-1,3.2840174E-2,1.2479924E0,1.0050375E-1,8.4188926E-1,-5.808262E-1,7.2342587E-1,-1.0433283E-1,-2.6740134E-1,4.961333E-1,-5.172315E-1,6.15768E-4,1.0688202E0,3.677643E-1,-5.011671E-2,-8.8194054E-1,-2.6735723E-1,7.2291575E-2,3.3326954E-2,1.2266385E-2,-1.1264252E-1,-6.727373E-2,2.5718942E-2,1.3465385E-1,7.6015093E-3,1.367626E-1,2.0847503E-2,3.7063967E-2,-6.0590394E-2,4.974386E-3,1.1529859E-1,-2.0805387E-2,-6.956996E-2,1.2930389E-1,3.2179475E-2,2.2043712E-2,-8.852295E-2,4.2542093E-3,1.0041074E-1,-1.43461125E-2,-6.625978E-2,3.439808E-2,1.2881722E-1,-6.22501E-3,4.3469343E-2,-3.0803192E-2,5.1387902E-2,5.5032354E-3,-1.000697E-1,2.1147111E-2,-8.5084654E-2],"categories":[],"categories_nodes":[],"categories_segments":[],"categories_sizes":[],"default_left":[0,0,0,0,0,0,0,0,0,0,0,0,0,0,0,0,0,0,0,0,0,0,0,0,0,0,0,0,0,0,0,0,0,0,0,0,0,0,0,0,0,0,0,0,0,0,0,0,0,0,0,0,0,0,0,0,0,0,0,0,0,0,0,0,0,0,0,0,0,0,0,0,0,0,0,0,0,0,0,0,0],"id":10,"left_children":[1,3,5,7,9,11,13,15,-1,17,19,21,-1,23,25,27,29,31,33,35,37,-1,39,41,43,-1,45,47,49,51,53,-1,55,57,59,61,63,-1,65,67,69,-1,71,73,75,77,79,-1,-1,-1,-1,-1,-1,-1,-1,-1,-1,-1,-1,-1,-1,-1,-1,-1,-1,-1,-1,-1,-1,-1,-1,-1,-1,-1,-1,-1,-1,-1,-1,-1,-1],"loss_changes":[1.98865E1,3.3254547E0,7.436147E1,2.0519886E1,7.590166E0,1.3194725E1,1.3423972E1,2.5877314E0,0E0,2.0937805E0,6.6138983E0,8.506373E0,0E0,4.246788E0,3.0332484E0,4.8667154E0,5.7746534E0,9.3171215E-1,2.4684753E0,4.2818704E0,9.4871473E-1,0E0,3.0582447E0,1.896019E0,2.804716E0,0E0,1.7235155E0,2.117752E0,2.9792314E0,6.559811E0,2.564752E0,0E0,9.990177E-1,2.0270422E0,2.5045624E0,4.8583746E-3,1.9680495E0,0E0,1.6653607E0,2.6716952E0,1.2712216E-1,0E0,1.3230429E0,2.7530584E0,3.078213E0,1.234088E0,3.3166678E0,0E0,0E0,0E0,0E0,0E0,0E0,0E0,0E0,0E0,0E0,0E0,0E0,0E0,0E0,0E0,0E0,0E0,0E0,0E0,0E0,0E0,0E0,0E0,0E0,0E0,0E0,0E0,0E0,0E0,0E0,0E0,0E0,0E0,0E0],"parents":[2147483647,0,0,1,1,2,2,3,3,4,4,5,5,6,6,7,7,9,9,10,10,11,11,13,13,14,14,15,15,16,16,17,17,18,18,19,19,20,20,22,22,23,23,24,24,26,26,27,27,28,28,29,29,30,30,32,32,33,33,34,34,35,35,36,36,38,38,39,39,40,40,42,42,43,43,44,44,45,45,46,46],"right_children":[2,4,6,8,10,12,14,16,-1,18,20,22,-1,24,26,28,30,32,34,36,38,-1,40,42,44,-1,46,48,50,52,54,-1,56,58,60,62,64,-1,66,68,70,-1,72,74,76,78,80,-1,-1,-1,-1,-1,-1,-1,-1,-1,-1,-1,-1,-1,-1,-1,-1,-1,-1,-1,-1,-1,-1,-1,-1,-1,-1,-1,-1,-1,-1,-1,-1,-1,-1],"split_conditions":[6.3E0,5.625E0,7.505E0,5.6E0,9.090909E0,6.9E0,8.1E0,4.385E0,-1.1246922E-1,7E0,8.173333E0,6.875E0,-1.1206595E-1,6.265E0,3.6E0,9.824561E0,5.005E0,5.4E0,7.556E0,9.306418E0,9.702381E0,-1.0812731E-1,9.534632E0,5.3E0,9.737667E0,5.060069E-2,8.722222E0,7.545E0,8.166667E0,7.2125E0,7.542E0,3.2840174E-2,8.633333E0,6.9333334E0,6.5E0,9.1824465E0,6.2575E0,-1.0433283E-1,9.085E0,6.9333334E0,7.75E0,6.15768E-4,5.745E0,4.7E0,7.52E0,4.5E0,8.283334E0,7.2291575E-2,3.3326954E-2,1.2266385E-2,-1.1264252E-1,-6.727373E-2,2.5718942E-2,1.3465385E-1,7.6015093E-3,1.367626E-1,2.0847503E-2,3.7063967E-2,-6.0590394E-2,4.974386E-3,1.1529859E-1,-2.0805387E-2,-6.956996E-2,1.2930389E-1,3.2179475E-2,2.2043712E-2,-8.852295E-2,4.2542093E-3,1.0041074E-1,-1.43461125E-2,-6.625978E-2,3.439808E-2,1.2881722E-1,-6.22501E-3,4.3469343E-2,-3.0803192E-2,5.1387902E-2,5.5032354E-3,-1.000697E-1,2.1147111E-2,-8.5084654E-2],"split_indices":[1,1,1,1,3,1,1,1,0,0,0,1,0,0,5,3,1,3,0,3,3,0,3,3,3,0,3,0,5,0,0,0,3,5,5,3,1,0,0,5,0,0,0,5,1,3,0,0,0,0,0,0,0,0,0,0,0,0,0,0,0,0,0,0,0,0,0,0,0,0,0,0,0,0,0,0,0,0,0,0,0],"split_type":[0,0,0,0,0,0,0,0,0,0,0,0,0,0,0,0,0,0,0,0,0,0,0,0,0,0,0,0,0,0,0,0,0,0,0,0,0,0,0,0,0,0,0,0,0,0,0,0,0,0,0,0,0,0,0,0,0,0,0,0,0,0,0,0,0,0,0,0,0,0,0,0,0,0,0,0,0,0,0,0,0],"sum_hessian":[4.0245685E2,1.6648462E2,2.3597223E2,1.1782662E2,4.8658005E1,8.917344E1,1.467988E2,1.0746248E2,1.0364145E1,2.9387636E1,1.9270367E1,1.9986034E1,6.91874E1,1.2489011E2,2.1908686E1,7.186907E1,3.5593403E1,1.1546062E1,1.7841574E1,1.1914967E1,7.355401E0,6.116208E0,1.3869825E1,1.20999E1,1.1279021E2,2.085784E0,1.98229E1,6.529901E1,6.5700593E0,2.9502344E1,6.0910597E0,2.2202106E0,9.325851E0,8.445617E0,9.395958E0,2.4935958E0,9.4213705E0,3.4774265E0,3.8779743E0,1.078066E1,3.0891654E0,1.9916786E0,1.0108222E1,9.371692E1,1.9073286E1,9.595854E0,1.0227047E1,2.2993849E1,4.2305164E1,4.422959E0,2.1471002E0,1.1822105E1,1.7680239E1,3.4101396E0,2.68092E0,8.080292E0,1.2455604E0,6.4531846E0,1.9924318E0,2.976583E0,6.4193745E0,1.2496265E0,1.2439694E0,2.9781475E0,6.443223E0,2.5263608E0,1.3516136E0,6.2677093E0,4.512951E0,1.4213747E0,1.6677908E0,2.9449427E0,7.163279E0,1.2631355E1,8.108556E1,1.3399524E1,5.673762E0,1.1397742E0,8.4560795E0,5.9675093E0,4.259537E0],"tree_param":{"num_deleted":"0","num_feature":"6","num_nodes":"81","size_leaf_vector":"1"}},{"base_weights":[-3.8431168E-2,-1.10782936E-1,-7.2323163E-3,4.324706E-1,-5.050943E-2,-3.602477E-1,5.148002E-1,-9.933443E-2,1.2694038E-1,8.254489E-3,-5.5442613E-2,7.2293407E-1,1.1899016E-1,1.9721989E-2,-2.4048522E-1,6.268186E-1,1.9088749E-2,2.283612E-1,8.389863E-1,4.3312386E-1,-7.113613E-2,-4.8849106E-2,7.2098964E-1,-4.411247E-1,-1.7831784E-1,1.0016792E-1,4.5455515E-1,4.025494E-1,-9.614408E-2,6.270405E-2,-2.4835128E-2,1.3679089E-1,5.5238556E-2,-3.413427E-2,6.0547996E-2,-1.0731636E-2,7.444359E-2,8.505842E-2,-2.131762E-2,2.7027745E-2,-7.941057E-2,8.093836E-4,-3.5170134E-2,-2.0574644E-2,6.00585E-2,-3.5611633E-2,5.9896197E-2,-5.8859684E-2,-1.8461172E-3],"categories":[],"categories_nodes":[],"categories_segments":[],"categories_sizes":[],"default_left":[0,0,0,0,0,0,0,0,0,0,0,0,0,0,0,0,0,0,0,0,0,0,0,0,0,0,0,0,0,0,0,0,0,0,0,0,0,0,0,0,0,0,0,0,0,0,0,0,0],"id":11,"left_children":[1,-1,3,5,7,9,11,13,15,-1,-1,17,19,21,23,25,27,29,31,33,-1,35,37,39,41,-1,43,45,47,-1,-1,-1,-1,-1,-1,-1,-1,-1,-1,-1,-1,-1,-1,-1,-1,-1,-1,-1,-1],"loss_changes":[1.3230465E1,0E0,7.3774943E0,2.452797E0,3.0693257E0,3.7738794E-1,2.5406313E0,4.6637406E0,4.115957E0,0E0,0E0,9.9645233E-1,3.48647E0,7.311442E0,1.5045118E0,4.2009783E-1,2.8671372E0,1.1645249E0,1.7291012E0,1.4697148E0,0E0,6.5163617E0,1.8206787E0,7.5837274E0,3.1890116E0,0E0,1.195713E0,2.4460266E0,1.9029093E0,0E0,0E0,0E0,0E0,0E0,0E0,0E0,0E0,0E0,0E0,0E0,0E0,0E0,0E0,0E0,0E0,0E0,0E0,0E0,0E0],"parents":[2147483647,0,0,2,2,3,3,4,4,5,5,6,6,7,7,8,8,11,11,12,12,13,13,14,14,15,15,16,16,17,17,18,18,19,19,21,21,22,22,23,23,24,24,26,26,27,27,28,28],"right_children":[2,-1,4,6,8,10,12,14,16,-1,-1,18,20,22,24,26,28,30,32,34,-1,36,38,40,42,-1,44,46,48,-1,-1,-1,-1,-1,-1,-1,-1,-1,-1,-1,-1,-1,-1,-1,-1,-1,-1,-1,-1],"split_conditions":[2E0,-1.10782936E-1,3.5E0,5.4312353E0,9.502E0,3.5E0,6.9333334E0,8.751E0,4.6E0,8.254489E-3,-5.5442613E-2,4.3E0,4E0,8.502E0,9E0,5.3E0,9.585E0,3.3333333E0,5.5E0,7.3333335E0,-7.113613E-2,5E0,9.1E0,5.75E0,9.168E0,1.0016792E-1,6.2E0,5.6E0,7.111801E0,6.270405E-2,-2.4835128E-2,1.3679089E-1,5.5238556E-2,-3.413427E-2,6.0547996E-2,-1.0731636E-2,7.444359E-2,8.505842E-2,-2.131762E-2,2.7027745E-2,-7.941057E-2,8.093836E-4,-3.5170134E-2,-2.0574644E-2,6.00585E-2,-3.5611633E-2,5.9896197E-2,-5.8859684E-2,-1.8461172E-3],"split_indices":[4,0,2,3,2,5,5,2,5,0,0,5,4,2,2,3,2,5,5,5,0,4,5,5,2,0,3,5,3,0,0,0,0,0,0,0,0,0,0,0,0,0,0,0,0,0,0,0,0],"split_type":[0,0,0,0,0,0,0,0,0,0,0,0,0,0,0,0,0,0,0,0,0,0,0,0,0,0,0,0,0,0,0,0,0,0,0,0,0,0,0,0,0,0,0,0,0,0,0,0,0],"sum_hessian":[3.9578934E2,1.0241299E1,3.8554807E2,3.3740967E1,3.518071E2,2.8569431E0,3.0884024E1,2.7624026E2,7.556681E1,1.0461861E0,1.810757E0,1.9698984E1,1.11850395E1,1.5031467E2,1.259256E2,1.2556627E1,6.301018E1,4.307919E0,1.5391067E1,8.462094E0,2.722945E0,1.3777332E2,1.2541357E1,2.8345938E1,9.7579666E1,2.4375315E0,1.0119096E1,1.398359E1,4.9026592E1,2.1742387E0,2.13368E0,4.083001E0,1.1308065E1,1.3619306E0,7.1001635E0,1.2912144E2,8.651879E0,1.1092055E1,1.449302E0,9.478052E0,1.8867886E1,4.748255E1,5.009711E1,1.7585489E0,8.360547E0,2.7085202E0,1.127507E1,5.7839117E0,4.324268E1],"tree_param":{"num_deleted":"0","num_feature":"6","num_nodes":"49","size_leaf_vector":"1"}},{"base_weights":[1.6581813E-3,-1.0661943E-1,2.7476227E-2,4.0970847E-1,-1.3982426E-2,3.103998E-1,1.1490203E0,-3.4233216E-2,3.3683413E-1,4.8402342E-1,-2.1596545E-1,2.768859E-2,1.4110677E-1,-5.5482693E-2,2.9868996E-1,6.9714683E-1,6.3392274E-2,-5.4406915E-2,5.9350103E-1,-2.2187233E-2,-4.513164E-1,-3.2397422E-1,-2.8164389E-2,6.953076E-1,-3.6506918E-1,1.050149E-1,1.8590537E-1,1.03539124E-1,-2.603547E-1,5.281427E-2,-3.922197E-2,8.914841E-2,3.4272414E-2,-3.4927543E-2,7.185387E-2,-5.4216366E-2,-1.2695536E-2,-1.4034957E-2,-7.710001E-2,9.428915E-3,-1.0370173E-2,-4.1074183E-2,8.4255956E-2,1.3990544E-2,-7.356927E-2,-4.837842E-2,6.5178856E-2,-5.513362E-2,7.251609E-2],"categories":[],"categories_nodes":[],"categories_segments":[],"categories_sizes":[],"default_left":[0,0,0,0,0,0,0,0,0,0,0,0,0,0,0,0,0,0,0,0,0,0,0,0,0,0,0,0,0,0,0,0,0,0,0,0,0,0,0,0,0,0,0,0,0,0,0,0,0],"id":12,"left_children":[1,-1,3,5,7,9,11,13,15,17,19,-1,-1,21,23,25,27,29,31,33,35,37,39,41,43,-1,45,-1,47,-1,-1,-1,-1,-1,-1,-1,-1,-1,-1,-1,-1,-1,-1,-1,-1,-1,-1,-1,-1],"loss_changes":[1.1003078E1,0E0,6.179877E0,2.4448485E0,2.515494E0,3.3039656E0,5.5737495E-1,2.3803518E0,1.8600285E0,1.6022482E0,4.175403E-1,0E0,0E0,2.3007722E0,5.5726027E0,1.2916641E0,4.073553E0,1.273049E0,1.3547153E0,1.7514967E0,5.43921E-2,2.2713087E0,2.6638951E0,2.4618974E0,1.6399528E0,0E0,1.7443832E0,0E0,3.2293646E0,0E0,0E0,0E0,0E0,0E0,0E0,0E0,0E0,0E0,0E0,0E0,0E0,0E0,0E0,0E0,0E0,0E0,0E0,0E0,0E0],"parents":[2147483647,0,0,2,2,3,3,4,4,5,5,6,6,7,7,8,8,9,9,10,10,13,13,14,14,15,15,16,16,17,17,18,18,19,19,20,20,21,21,22,22,23,23,24,24,26,26,28,28],"right_children":[2,-1,4,6,8,10,12,14,16,18,20,-1,-1,22,24,26,28,30,32,34,36,38,40,42,44,-1,46,-1,48,-1,-1,-1,-1,-1,-1,-1,-1,-1,-1,-1,-1,-1,-1,-1,-1,-1,-1,-1,-1],"split_conditions":[2E0,-1.0661943E-1,4.6E0,9.702381E0,1.0002E1,8.831746E0,7.6E0,5E0,3E0,6.3048735E0,6.9333334E0,2.768859E-2,1.4110677E-1,7.3E0,8.8E0,7.8E0,4.4E0,2.6E0,5.5E0,6.6E0,8.333333E0,7.083E0,8.751E0,2.7E0,8.722222E0,1.050149E-1,9.347826E0,1.03539124E-1,8.6E0,5.281427E-2,-3.922197E-2,8.914841E-2,3.4272414E-2,-3.4927543E-2,7.185387E-2,-5.4216366E-2,-1.2695536E-2,-1.4034957E-2,-7.710001E-2,9.428915E-3,-1.0370173E-2,-4.1074183E-2,8.4255956E-2,1.3990544E-2,-7.356927E-2,-4.837842E-2,6.5178856E-2,-5.513362E-2,7.251609E-2],"split_indices":[4,0,2,3,2,3,5,4,4,3,5,0,0,2,2,5,5,5,5,5,5,2,2,5,3,0,3,0,5,0,0,0,0,0,0,0,0,0,0,0,0,0,0,0,0,0,0,0,0],"split_type":[0,0,0,0,0,0,0,0,0,0,0,0,0,0,0,0,0,0,0,0,0,0,0,0,0,0,0,0,0,0,0,0,0,0,0,0,0,0,0,0,0,0,0,0,0,0,0,0,0],"sum_hessian":[3.9703543E2,8.421459E0,3.8861398E2,3.715719E1,3.514568E2,3.4008778E1,3.1484087E0,3.3312943E2,1.8327385E1,2.5633808E1,8.37497E0,1.2025987E0,1.94581E0,3.139258E2,1.9203587E1,7.239032E0,1.1088354E1,4.4163656E0,2.1217443E1,5.1932974E0,3.181673E0,2.7988472E1,2.8593735E2,1.1991028E1,7.2125583E0,3.6586738E0,3.5803578E0,2.2212508E0,8.867104E0,1.414198E0,3.0021675E0,8.528569E0,1.2688873E1,3.9690995E0,1.2241979E0,1.960963E0,1.2207099E0,2.0770533E1,7.21794E0,1.089959E2,1.7694145E2,1.1986045E0,1.0792423E1,3.316432E0,3.8961265E0,1.4531235E0,2.1272342E0,7.185953E0,1.6811501E0],"tree_param":{"num_deleted":"0","num_feature":"6","num_nodes":"49","size_leaf_vector":"1"}},{"base_weights":[1.63266E-2,-1.047794E-1,4.1971326E-2,3.1975728E-1,2.7363654E-3,2.2888759E-1,1.0390551E0,-6.6114575E-1,3.9477948E-2,4.5119312E-1,-2.7601466E-1,1.2681948E-1,4.383099E-2,5.276946E-2,-8.403323E-1,8.223489E-2,-3.2406005E-1,1.11180335E-1,7.8371054E-1,-5.356249E-1,7.845674E-2,1.0786996E-3,-9.030232E-1,3.4346227E-2,2.4643068E-1,2.7812067E-1,-5.439779E-1,-3.1817604E-3,9.618341E-2,1.0385348E-1,2.2435812E-2,2.7919555E-2,-8.925799E-2,-1.0655242E-1,-6.2143154E-2,1.564727E-3,8.402243E-2,3.5676252E-2,-7.637162E-2,-7.7781096E-2,6.0134042E-2,3.6104932E-2,-7.208153E-2],"categories":[],"categories_nodes":[],"categories_segments":[],"categories_sizes":[],"default_left":[0,0,0,0,0,0,0,0,0,0,0,0,0,0,0,0,0,0,0,0,0,0,0,0,0,0,0,0,0,0,0,0,0,0,0,0,0,0,0,0,0,0,0],"id":13,"left_children":[1,-1,3,5,7,9,11,13,15,17,19,-1,-1,-1,21,23,25,27,29,31,-1,-1,33,35,37,39,41,-1,-1,-1,-1,-1,-1,-1,-1,-1,-1,-1,-1,-1,-1,-1,-1],"loss_changes":[1.0940615E1,0E0,4.259175E0,2.92348E0,8.404855E0,5.0883045E0,1.5199518E-1,4.2928014E0,5.100649E0,3.4272404E0,4.3133698E0,0E0,0E0,0E0,8.682051E-1,2.2944698E0,4.7274175E0,2.041846E0,1.9834328E0,3.7258704E0,0E0,0E0,2.4096489E-2,3.4212177E0,7.6249003E0,3.8484297E0,4.3652697E0,0E0,0E0,0E0,0E0,0E0,0E0,0E0,0E0,0E0,0E0,0E0,0E0,0E0,0E0,0E0,0E0],"parents":[2147483647,0,0,2,2,3,3,4,4,5,5,6,6,7,7,8,8,9,9,10,10,14,14,15,15,16,16,17,17,18,18,19,19,22,22,23,23,24,24,25,25,26,26],"right_children":[2,-1,4,6,8,10,12,14,16,18,20,-1,-1,-1,22,24,26,28,30,32,-1,-1,34,36,38,40,42,-1,-1,-1,-1,-1,-1,-1,-1,-1,-1,-1,-1,-1,-1,-1,-1],"split_conditions":[2E0,-1.047794E-1,6.667E0,8.9225E0,7.3E0,8.003333E0,9.128788E0,3E0,9.824561E0,7.134E0,9.702381E0,1.2681948E-1,4.383099E-2,5.276946E-2,5.66E0,9.502E0,3E0,5E0,7.7525E0,8.181818E0,7.845674E-2,1.0786996E-3,7.63E0,9.76E0,8.7975E0,7.675E0,8.334E0,-3.1817604E-3,9.618341E-2,1.0385348E-1,2.2435812E-2,2.7919555E-2,-8.925799E-2,-1.0655242E-1,-6.2143154E-2,1.564727E-3,8.402243E-2,3.5676252E-2,-7.637162E-2,-7.7781096E-2,6.0134042E-2,3.6104932E-2,-7.208153E-2],"split_indices":[4,0,2,0,2,0,3,4,3,0,3,0,0,0,0,2,4,4,0,3,0,0,0,0,0,0,2,0,0,0,0,0,0,0,0,0,0,0,0,0,0,0,0],"split_type":[0,0,0,0,0,0,0,0,0,0,0,0,0,0,0,0,0,0,0,0,0,0,0,0,0,0,0,0,0,0,0,0,0,0,0,0,0,0,0,0,0,0,0],"sum_hessian":[3.9830396E2,8.435069E0,3.898689E2,4.7365856E1,3.4250302E2,4.3223583E1,4.142274E0,1.7070074E1,3.2543295E2,3.0084103E1,1.3139481E1,2.1942825E0,1.9479914E0,1.9811158E0,1.5088959E1,2.91878E2,3.3554974E1,1.5534152E1,1.4549952E1,1.0953294E1,2.1861873E0,1.0919597E0,1.3997E1,2.2690808E2,6.49699E1,8.905422E0,2.464955E1,1.4122676E1,1.4114761E0,9.407502E0,5.1424494E0,3.4030342E0,7.5502596E0,7.110015E0,6.8869843E0,2.2275879E2,4.1493015E0,5.9155544E1,5.814358E0,1.7574701E0,7.1479526E0,3.8588452E0,2.0790705E1],"tree_param":{"num_deleted":"0","num_feature":"6","num_nodes":"43","size_leaf_vector":"1"}},{"base_weights":[-1.0446178E-2,2.0149061E-1,-1.7226057E-1,1.0762706E-1,4.1382965E-1,-9.115194E-1,2.0232347E-1,2.2508268E-1,-1.0982509E-1,1.0214388E0,2.6603624E-1,-2.4723451E-1,-1.097242E0,3.0581948E-1,-3.8404515E-1,6.4971066E-1,1.3401623E-1,1.16122484E-1,2.2415891E-2,-3.5349277E-1,3.9194277E-1,-1.0450637E-1,1.9751175E-1,-1.15608566E-1,-8.1155527E-1,5.516768E-1,2.1092345E-1,-1.1220688E-1,-8.757386E-1,-4.1062306E-3,8.411036E-1,2.0810696E-1,-4.110918E-1,-9.5098096E-1,9.9663936E-2,7.3715335E-1,-1.4570653E-1,4.3123367E-1,-5.770135E-1,-1.0072835E-1,2.2789663E-2,4.285229E-1,1.2655659E-1,3.3350345E-1,-2.0748484E-1,-4.775974E-1,8.11963E-1,-9.957423E-1,-1.4608753E-2,-2.8891841E-2,3.2793246E-2,1.0757317E-1,4.504322E-2,3.9183125E-2,-1.4354986E-2,-8.187681E-2,3.309903E-2,-1.303145E-1,-4.5892574E-2,8.49077E-2,1.0973382E-2,1.4342991E-2,-8.431299E-2,1.12253144E-1,1.5782958E-2,-8.860624E-2,1.1479334E-3,6.593855E-2,1.770074E-2,-5.363351E-2,3.895936E-2,1.47663355E-2,-6.26826E-2,-8.746977E-2,8.87563E-4,1.2910108E-1,-3.165185E-2,-2.7301222E-2,-1.0865042E-1],"categories":[],"categories_nodes":[],"categories_segments":[],"categories_sizes":[],"default_left":[0,0,0,0,0,0,0,0,0,0,0,0,0,0,0,0,0,0,0,0,0,0,0,0,0,0,0,0,0,0,0,0,0,0,0,0,0,0,0,0,0,0,0,0,0,0,0,0,0,0,0,0,0,0,0,0,0,0,0,0,0,0,0,0,0,0,0,0,0,0,0,0,0,0,0,0,0,0,0],"id":14,"left_children":[1,3,5,7,9,11,13,15,-1,17,19,21,23,25,27,29,31,-1,-1,33,35,-1,37,-1,39,41,43,45,47,49,51,53,55,57,-1,59,61,63,65,-1,-1,67,-1,69,71,73,75,77,-1,-1,-1,-1,-1,-1,-1,-1,-1,-1,-1,-1,-1,-1,-1,-1,-1,-1,-1,-1,-1,-1,-1,-1,-1,-1,-1,-1,-1,-1,-1],"loss_changes":[1.3769322E1,3.4204936E0,6.3220955E1,1.751432E1,4.4824247E0,9.1959E0,9.335934E0,4.2408195E0,0E0,8.548212E-1,3.5656455E0,6.6137414E0,6.50177E-2,2.9089603E0,3.0069892E0,2.4441233E0,3.8583963E0,0E0,0E0,7.3582582E0,6.972639E0,0E0,2.4999056E0,0E0,2.9859638E0,2.5781364E0,4.95071E0,5.827157E0,5.659113E-1,6.065269E-1,8.988619E-1,5.4123955E0,3.7542925E0,4.4521332E-1,0E0,1.5002451E0,3.2058105E0,1.7364835E0,6.1223125E-1,0E0,0E0,1.7287602E0,0E0,3.8191328E0,3.396131E0,2.3594143E0,3.076177E0,1.4975214E-1,0E0,0E0,0E0,0E0,0E0,0E0,0E0,0E0,0E0,0E0,0E0,0E0,0E0,0E0,0E0,0E0,0E0,0E0,0E0,0E0,0E0,0E0,0E0,0E0,0E0,0E0,0E0,0E0,0E0,0E0,0E0],"parents":[2147483647,0,0,1,1,2,2,3,3,4,4,5,5,6,6,7,7,9,9,10,10,11,11,12,12,13,13,14,14,15,15,16,16,19,19,20,20,22,22,24,24,25,25,26,26,27,27,28,28,29,29,30,30,31,31,32,32,33,33,35,35,36,36,37,37,38,38,41,41,43,43,44,44,45,45,46,46,47,47],"right_children":[2,4,6,8,10,12,14,16,-1,18,20,22,24,26,28,30,32,-1,-1,34,36,-1,38,-1,40,42,44,46,48,50,52,54,56,58,-1,60,62,64,66,-1,-1,68,-1,70,72,74,76,78,-1,-1,-1,-1,-1,-1,-1,-1,-1,-1,-1,-1,-1,-1,-1,-1,-1,-1,-1,-1,-1,-1,-1,-1,-1,-1,-1,-1,-1,-1,-1],"split_conditions":[6.3E0,5.625E0,7.505E0,5.6E0,5.635E0,6.9E0,8.1E0,6.3E0,-1.0982509E-1,9.444445E0,6.25E0,6.88E0,4E0,7.8E0,9.2E0,3E0,9.772727E0,1.16122484E-1,2.2415891E-2,5E0,4E0,-1.0450637E-1,9.502E0,-1.15608566E-1,8.722222E0,7.6282053E0,4E0,9.002E0,9.702381E0,9.128788E0,8.409091E0,4.385E0,3.135E0,9.1824465E0,9.9663936E-2,1E1,9.498366E0,3E0,1E1,-1.0072835E-1,2.2789663E-2,8.502E0,1.2655659E-1,7.994071E0,9.285714E0,8.75E0,9.3E0,7.3291926E0,-1.4608753E-2,-2.8891841E-2,3.2793246E-2,1.0757317E-1,4.504322E-2,3.9183125E-2,-1.4354986E-2,-8.187681E-2,3.309903E-2,-1.303145E-1,-4.5892574E-2,8.49077E-2,1.0973382E-2,1.4342991E-2,-8.431299E-2,1.12253144E-1,1.5782958E-2,-8.860624E-2,1.1479334E-3,6.593855E-2,1.770074E-2,-5.363351E-2,3.895936E-2,1.47663355E-2,-6.26826E-2,-8.746977E-2,8.87563E-4,1.2910108E-1,-3.165185E-2,-2.7301222E-2,-1.0865042E-1],"split_indices":[1,1,1,1,1,1,1,2,0,3,1,1,4,3,2,4,3,0,0,4,4,0,2,0,3,3,4,2,3,3,3,1,1,3,0,3,3,4,2,0,0,2,0,3,3,1,3,3,0,0,0,0,0,0,0,0,0,0,0,0,0,0,0,0,0,0,0,0,0,0,0,0,0,0,0,0,0,0,0],"split_type":[0,0,0,0,0,0,0,0,0,0,0,0,0,0,0,0,0,0,0,0,0,0,0,0,0,0,0,0,0,0,0,0,0,0,0,0,0,0,0,0,0,0,0,0,0,0,0,0,0,0,0,0,0,0,0,0,0,0,0,0,0,0,0,0,0,0,0,0,0,0,0,0,0,0,0,0,0,0,0],"sum_hessian":[3.994912E2,1.728523E2,2.2663892E2,1.2091099E2,5.194131E1,7.5736336E1,1.5090257E2,1.10920395E2,9.990587E0,9.005712E0,4.2935596E1,1.7057383E1,5.8678955E1,1.2867029E2,2.2232285E1,1.850414E1,9.241626E1,7.2739053E0,1.7318068E0,6.9466577E0,3.598894E1,5.622105E0,1.1435278E1,4.6130623E1,1.2548331E1,3.4492752E1,9.417754E1,1.510791E1,7.124374E0,4.411743E0,1.4092399E1,8.190237E1,1.0513889E1,5.020515E0,1.9261428E0,2.1690784E1,1.4298155E1,9.1249485E0,2.3103297E0,1.0585951E1,1.9623799E0,3.0782661E1,3.7100894E0,7.299523E1,2.1182306E1,1.1173457E1,3.9344528E0,5.804964E0,1.3194096E0,2.4446583E0,1.9670846E0,7.709006E0,6.383393E0,5.3721268E1,2.8181099E1,6.7192235E0,3.794666E0,1.9654623E0,3.0550525E0,1.8107374E1,3.583411E0,1.0669257E1,3.6288972E0,1.7058854E0,7.4190626E0,1.1832798E0,1.12705E0,1.5204769E1,1.5577892E1,3.9031816E0,6.909206E1,1.1819777E1,9.362531E0,5.7124414E0,5.4610157E0,2.6608713E0,1.2735816E0,1.0948403E0,4.710124E0],"tree_param":{"num_deleted":"0","num_feature":"6","num_nodes":"79","size_leaf_vector":"1"}},{"base_weights":[-1.5482775E-2,-1.0003883E-1,4.717211E-3,2.2606464E-2,-3.8597703E-1,1.9618133E-1,-3.1128122E-2,-4.431756E-1,3.8680118E-3,1.3053618E-1,9.319613E-1,-6.4466946E-2,3.566489E-1,-2.8582934E-1,-7.55386E-1,6.171853E-2,5.4650015E-1,1.0917364E0,9.937738E-3,-3.111917E-2,-4.2009693E-1,6.7525095E-1,-2.131866E-1,-4.862453E-1,6.739859E-2,-1.2403266E-2,-9.902735E-2,4.2039573E-2,-5.4442254E-3,-1.0762139E-3,6.7972444E-2,1.268735E-1,3.4757227E-2,-5.8679204E-3,6.275702E-2,-1.2995734E-2,-1.1724881E-1,9.371642E-2,2.2079458E-2,2.8208716E-2,-6.0183115E-2,-6.866677E-2,1.2066168E-2],"categories":[],"categories_nodes":[],"categories_segments":[],"categories_sizes":[],"default_left":[0,0,0,0,0,0,0,0,0,0,0,0,0,0,0,0,0,0,0,0,0,0,0,0,0,0,0,0,0,0,0,0,0,0,0,0,0,0,0,0,0,0,0],"id":15,"left_children":[1,-1,3,5,7,9,11,13,-1,15,17,19,21,23,25,27,29,31,-1,33,35,37,39,41,-1,-1,-1,-1,-1,-1,-1,-1,-1,-1,-1,-1,-1,-1,-1,-1,-1,-1,-1],"loss_changes":[7.792737E0,0E0,2.6966612E0,3.4448583E0,4.274876E-1,4.0946198E0,3.6738172E0,5.194254E-1,0E0,2.293694E0,8.210015E-1,3.0809002E0,4.2306204E0,2.551708E0,5.307486E-1,2.976505E0,8.547361E-1,3.1799412E-1,0E0,4.386405E0,4.7126827E0,1.5401168E0,1.8698497E0,1.3168993E0,0E0,0E0,0E0,0E0,0E0,0E0,0E0,0E0,0E0,0E0,0E0,0E0,0E0,0E0,0E0,0E0,0E0,0E0,0E0],"parents":[2147483647,0,0,2,2,3,3,4,4,5,5,6,6,7,7,9,9,10,10,11,11,12,12,13,13,14,14,15,15,16,16,17,17,19,19,20,20,21,21,22,22,23,23],"right_children":[2,-1,4,6,8,10,12,14,-1,16,18,20,22,24,26,28,30,32,-1,34,36,38,40,42,-1,-1,-1,-1,-1,-1,-1,-1,-1,-1,-1,-1,-1,-1,-1,-1,-1,-1,-1],"split_conditions":[2E0,-1.0003883E-1,9.3E0,3E0,9.67E0,1.0002E1,5E0,9.8E0,3.8680118E-3,9.13E0,8.266666E0,8.7525E0,8.8E0,9.7E0,8.751E0,8.3E0,7.3333335E0,7.944E0,9.937738E-3,8.59E0,9.502E0,6.6E0,5.7E0,9.502E0,6.739859E-2,-1.2403266E-2,-9.902735E-2,4.2039573E-2,-5.4442254E-3,-1.0762139E-3,6.7972444E-2,1.268735E-1,3.4757227E-2,-5.8679204E-3,6.275702E-2,-1.2995734E-2,-1.1724881E-1,9.371642E-2,2.2079458E-2,2.8208716E-2,-6.0183115E-2,-6.866677E-2,1.2066168E-2],"split_indices":[4,0,5,4,0,2,4,5,0,0,5,0,2,5,2,2,5,0,0,0,2,5,5,2,0,0,0,0,0,0,0,0,0,0,0,0,0,0,0,0,0,0,0],"split_type":[0,0,0,0,0,0,0,0,0,0,0,0,0,0,0,0,0,0,0,0,0,0,0,0,0,0,0,0,0,0,0,0,0,0,0,0,0,0,0,0,0,0,0],"sum_hessian":[3.9045456E2,6.871904E0,3.8358264E2,3.676889E2,1.5893738E1,8.629278E1,2.8139612E2,1.3968643E1,1.9250951E0,8.0305466E1,5.987315E0,2.5988635E2,2.1509771E1,1.056144E1,3.4072027E0,6.9890976E1,1.0414486E1,4.7621775E0,1.2251382E0,2.386001E2,2.128626E1,1.3677513E1,7.832258E0,9.145247E0,1.4161932E0,1.33823E0,2.0689728E0,1.6456888E1,5.343409E1,2.1867537E0,8.227733E0,3.2776742E0,1.484503E0,2.2989215E2,8.707935E0,1.620858E1,5.077681E0,8.003026E0,5.674487E0,3.5642679E0,4.26799E0,6.7761116E0,2.3691354E0],"tree_param":{"num_deleted":"0","num_feature":"6","num_nodes":"43","size_leaf_vector":"1"}},{"base_weights":[-4.3310374E-2,-1.8537213E-1,1.9246969E-1,8.887604E-2,-1.09656595E-1,2.7831316E-1,-2.722298E-1,2.007292E-1,-5.6738053E-2,3.5479677E-1,-1.93299E-1,-9.872413E-2,-8.4926374E-2,7.777448E-2,1.144829E0,-2.858372E-1,9.304718E-2,2.8806174E-1,8.386091E-1,-7.0928085E-1,2.1126314E-1,9.1064684E-2,-5.476519E-1,-1.3714029E-1,4.151565E-1,-1.7410839E-2,1.3782202E0,-4.2953545E-1,7.367468E-1,5.385841E-1,-1.6430983E-1,1.1970023E-1,2.5406322E-1,9.626488E-1,-1.51286675E-2,-1.03157006E-1,-9.4859E-1,-2.1541245E-1,7.1153873E-1,-1.9809102E-1,6.576272E-1,-1.011404E-1,1.640469E-2,1.7212119E-2,-4.6564113E-2,5.85334E-2,2.055531E-3,3.138262E-2,1.5154825E-1,-6.765494E-2,-1.9975685E-2,3.0115863E-2,9.496902E-2,6.659649E-3,9.462597E-2,1.5978904E-2,-3.455468E-2,2.1886459E-2,1.1658775E-1,1.05702534E-1,3.455335E-2,-5.0952107E-2,3.5172846E-2,-2.178047E-2,-1.1762344E-1,9.284684E-2,-6.366527E-2,1.7292228E-2,9.299616E-2,3.4707945E-2,-7.5120695E-2,1.15025274E-1,-3.840573E-2],"categories":[],"categories_nodes":[],"categories_segments":[],"categories_sizes":[],"default_left":[0,0,0,0,0,0,0,0,0,0,0,0,0,0,0,0,0,0,0,0,0,0,0,0,0,0,0,0,0,0,0,0,0,0,0,0,0,0,0,0,0,0,0,0,0,0,0,0,0,0,0,0,0,0,0,0,0,0,0,0,0,0,0,0,0,0,0,0,0,0,0,0,0],"id":16,"left_children":[1,3,5,7,-1,9,11,13,15,17,19,-1,21,23,25,27,29,31,33,35,37,39,41,43,45,-1,47,49,51,53,55,-1,57,59,-1,61,63,65,67,69,71,-1,-1,-1,-1,-1,-1,-1,-1,-1,-1,-1,-1,-1,-1,-1,-1,-1,-1,-1,-1,-1,-1,-1,-1,-1,-1,-1,-1,-1,-1,-1,-1],"loss_changes":[1.2936462E1,6.0284477E1,5.872017E0,3.0417557E0,0E0,4.5102863E0,3.0180478E0,1.2151387E1,2.8270671E0,3.190836E0,3.8719435E0,0E0,1.6336124E0,6.899496E0,3.957775E0,5.093342E0,5.8331556E0,2.6299496E0,1.6636486E0,1.0720925E0,2.451107E0,2.5788922E0,1.9815949E0,6.0130672E0,2.4705958E0,0E0,1.0400352E0,1.5184927E0,1.1967397E-1,3.51165E0,1.9655831E0,0E0,2.7229395E0,2.825327E-1,0E0,8.086462E-1,6.8551016E-1,3.7604456E0,4.4947672E-1,3.4765275E0,3.1523232E0,0E0,0E0,0E0,0E0,0E0,0E0,0E0,0E0,0E0,0E0,0E0,0E0,0E0,0E0,0E0,0E0,0E0,0E0,0E0,0E0,0E0,0E0,0E0,0E0,0E0,0E0,0E0,0E0,0E0,0E0,0E0,0E0],"parents":[2147483647,0,0,1,1,2,2,3,3,5,5,6,6,7,7,8,8,9,9,10,10,12,12,13,13,14,14,15,15,16,16,17,17,18,18,19,19,20,20,21,21,22,22,23,23,24,24,26,26,27,27,28,28,29,29,30,30,32,32,33,33,35,35,36,36,37,37,38,38,39,39,40,40],"right_children":[2,4,6,8,-1,10,12,14,16,18,20,-1,22,24,26,28,30,32,34,36,38,40,42,44,46,-1,48,50,52,54,56,-1,58,60,-1,62,64,66,68,70,72,-1,-1,-1,-1,-1,-1,-1,-1,-1,-1,-1,-1,-1,-1,-1,-1,-1,-1,-1,-1,-1,-1,-1,-1,-1,-1,-1,-1,-1,-1,-1,-1],"split_conditions":[7.51E0,6.9E0,8.1E0,8.831746E0,-1.09656595E-1,8.67E0,8.125E0,8.335E0,9.390476E0,9.6E0,9.005E0,-9.872413E-2,9.5E0,5.625E0,7.7272725E0,8.8825E0,8E0,5.422E0,8.3375E0,8.954191E0,9.619047E0,9.002E0,9.306418E0,4.385E0,6.3E0,-1.7410839E-2,6.418E0,8.751E0,9.175E0,7.61E0,9.619047E0,1.1970023E-1,8.59E0,9.522727E0,-1.51286675E-2,8.409091E0,8.502E0,7.9656863E0,8.751E0,7.333E0,9.3E0,-1.011404E-1,1.640469E-2,1.7212119E-2,-4.6564113E-2,5.85334E-2,2.055531E-3,3.138262E-2,1.5154825E-1,-6.765494E-2,-1.9975685E-2,3.0115863E-2,9.496902E-2,6.659649E-3,9.462597E-2,1.5978904E-2,-3.455468E-2,2.1886459E-2,1.1658775E-1,1.05702534E-1,3.455335E-2,-5.0952107E-2,3.5172846E-2,-2.178047E-2,-1.1762344E-1,9.284684E-2,-6.366527E-2,1.7292228E-2,9.299616E-2,3.4707945E-2,-7.5120695E-2,1.15025274E-1,-3.840573E-2],"split_indices":[1,1,1,3,0,0,1,0,3,2,0,0,2,1,3,0,0,0,0,3,3,2,3,1,1,0,2,2,0,0,3,0,0,3,0,3,2,3,2,0,3,0,0,0,0,0,0,0,0,0,0,0,0,0,0,0,0,0,0,0,0,0,0,0,0,0,0,0,0,0,0,0,0],"split_type":[0,0,0,0,0,0,0,0,0,0,0,0,0,0,0,0,0,0,0,0,0,0,0,0,0,0,0,0,0,0,0,0,0,0,0,0,0,0,0,0,0,0,0,0,0,0,0,0,0,0,0,0,0,0,0,0,0,0,0,0,0,0,0,0,0,0,0,0,0,0,0,0,0],"sum_hessian":[3.841517E2,2.3985095E2,1.4430075E2,1.850559E2,5.479506E1,1.2213919E2,2.2161558E1,1.0444679E2,8.06091E1,1.053085E2,1.6830694E1,3.7137787E0,1.8447779E1,9.336924E1,1.1077553E1,3.1508295E1,4.9100803E1,9.394546E1,1.1363041E1,7.0657597E0,9.764935E0,1.3946591E1,4.501188E0,5.7399113E1,3.5970127E1,1.7036896E0,9.373863E0,2.8134636E1,3.3736587E0,1.757763E1,3.1523172E1,2.1539056E0,9.179155E1,1.0122196E1,1.2408451E0,2.405119E0,4.6606407E0,5.5774474E0,4.187487E0,9.664499E0,4.2820926E0,2.4703581E0,2.0308297E0,2.9810535E1,2.7588575E1,2.4794E1,1.11761265E1,1.4461432E0,7.92772E0,1.2621772E1,1.5512864E1,1.9004477E0,1.4732109E0,8.685418E0,8.892211E0,1.134812E1,2.0175055E1,8.9573784E1,2.217772E0,8.161236E0,1.9609603E0,1.2068722E0,1.1982467E0,1.5717561E0,3.0888844E0,1.1770445E0,4.400403E0,1.7251257E0,2.4623613E0,5.054806E0,4.609693E0,2.8364685E0,1.4456242E0],"tree_param":{"num_deleted":"0","num_feature":"6","num_nodes":"73","size_leaf_vector":"1"}},{"base_weights":[-1.18109565E-2,1.630755E-1,-1.5464821E-1,2.9576042E-1,9.8005375E-3,-7.7619E-1,1.376597E-1,2.087649E-1,9.270487E-1,2.0727898E-1,-2.4091867E-1,-5.3909086E-3,-1.0254558E-1,2.3463064E-1,-4.3293568E-1,3.2680026E-1,-8.597617E-2,4.351741E-1,1.4194615E-1,-3.9977378E-1,2.8769186E-1,-3.4840465E-1,5.894385E-1,-9.870508E-2,4.1953927E-1,4.0089127E-1,7.441063E-2,2.0731856E-1,-5.3157E-1,1.2507376E-1,7.494659E-1,4.4802487E-1,-4.8282552E-1,-1.1351669E-1,1.0160998E-1,-5.577861E-1,9.91383E-3,5.3979164E-1,1.7759588E-1,-4.2370617E-1,5.693373E-2,9.60789E-2,1.3498096E-3,8.3180296E-1,8.7639116E-2,4.24385E-1,-2.1522328E-2,-3.5670996E-1,1.8734095E-1,5.147791E-2,-2.5368182E-2,-9.196224E-2,-4.0074962E-1,-1.5387428E-2,2.7446011E-2,2.4119666E-2,1.1775321E-1,7.495843E-2,-6.855031E-3,-9.169194E-3,-9.3777016E-2,3.1266417E-2,-6.670242E-2,-5.154023E-3,-7.866104E-2,7.4170955E-2,-7.711737E-2,-2.4954619E-2,4.451926E-2,-2.6715515E-2,-7.152699E-2,3.3395052E-2,1.1673683E-1,-8.821891E-2,4.2409934E-2,1.8674705E-2,5.1248576E-2,2.4345944E-2,-6.957149E-2,1.0462711E-1,1.1043524E-2,-2.1681719E-2,-6.535884E-2],"categories":[],"categories_nodes":[],"categories_segments":[],"categories_sizes":[],"default_left":[0,0,0,0,0,0,0,0,0,0,0,0,0,0,0,0,0,0,0,0,0,0,0,0,0,0,0,0,0,0,0,0,0,0,0,0,0,0,0,0,0,0,0,0,0,0,0,0,0,0,0,0,0,0,0,0,0,0,0,0,0,0,0,0,0,0,0,0,0,0,0,0,0,0,0,0,0,0,0,0,0,0,0],"id":17,"left_children":[1,3,5,7,9,11,13,15,17,19,21,23,-1,25,27,29,31,33,-1,35,37,39,41,-1,43,45,47,49,51,53,55,57,59,61,-1,63,-1,65,67,69,-1,-1,-1,71,73,75,-1,77,79,-1,-1,-1,81,-1,-1,-1,-1,-1,-1,-1,-1,-1,-1,-1,-1,-1,-1,-1,-1,-1,-1,-1,-1,-1,-1,-1,-1,-1,-1,-1,-1,-1,-1],"loss_changes":[9.531838E0,3.4864707E0,3.8258087E1,4.8552046E0,4.0427933E0,1.2928696E1,8.051052E0,2.883881E0,2.0086546E0,2.3433986E0,3.4179826E0,7.6954384E0,0E0,3.258655E0,1.4503419E0,4.9215817E0,5.3584604E0,2.3041482E0,0E0,5.092365E-1,1.0390897E0,2.4870937E0,9.4880426E-1,0E0,1.6900146E0,9.6496296E-1,3.1873817E0,6.340813E-1,5.7919216E-1,1.7515037E0,3.8071508E0,1.7436783E0,2.4766383E0,1.2537827E0,0E0,4.8352718E-1,0E0,3.7324386E0,3.5346875E0,1.2059641E0,0E0,0E0,0E0,5.5046844E-1,3.067948E0,1.128521E0,0E0,2.9463458E0,3.2828093E0,0E0,0E0,0E0,5.9002185E-1,0E0,0E0,0E0,0E0,0E0,0E0,0E0,0E0,0E0,0E0,0E0,0E0,0E0,0E0,0E0,0E0,0E0,0E0,0E0,0E0,0E0,0E0,0E0,0E0,0E0,0E0,0E0,0E0,0E0,0E0],"parents":[2147483647,0,0,1,1,2,2,3,3,4,4,5,5,6,6,7,7,8,8,9,9,10,10,11,11,13,13,14,14,15,15,16,16,17,17,19,19,20,20,21,21,22,22,24,24,25,25,26,26,27,27,28,28,29,29,30,30,31,31,32,32,33,33,35,35,37,37,38,38,39,39,43,43,44,44,45,45,47,47,48,48,52,52],"right_children":[2,4,6,8,10,12,14,16,18,20,22,24,-1,26,28,30,32,34,-1,36,38,40,42,-1,44,46,48,50,52,54,56,58,60,62,-1,64,-1,66,68,70,-1,-1,-1,72,74,76,-1,78,80,-1,-1,-1,82,-1,-1,-1,-1,-1,-1,-1,-1,-1,-1,-1,-1,-1,-1,-1,-1,-1,-1,-1,-1,-1,-1,-1,-1,-1,-1,-1,-1,-1,-1],"split_conditions":[6.3E0,8.722222E0,7.505E0,8.333E0,8.23E0,6.9E0,8.1E0,8.2E0,8.333333E0,8.9E0,9.5E0,6.875E0,-1.0254558E-1,8.751E0,5.571429E0,7.6282053E0,7.375E0,3.8E0,1.4194615E-1,5.64E0,3.755E0,6.27E0,9.522727E0,-9.870508E-2,7.495E0,9.5E0,9.002E0,6.7575E0,8.125E0,5.983437E0,7.2766666E0,8.9E0,3.8E0,3.755E0,1.0160998E-1,3.755E0,9.91383E-3,9.824561E0,7.56E0,9.737667E0,5.693373E-2,9.60789E-2,1.3498096E-3,7.12E0,7.675E0,7.3E0,-2.1522328E-2,8.4E0,6.1175E0,5.147791E-2,-2.5368182E-2,-9.196224E-2,8.8E0,-1.5387428E-2,2.7446011E-2,2.4119666E-2,1.1775321E-1,7.495843E-2,-6.855031E-3,-9.169194E-3,-9.3777016E-2,3.1266417E-2,-6.670242E-2,-5.154023E-3,-7.866104E-2,7.4170955E-2,-7.711737E-2,-2.4954619E-2,4.451926E-2,-2.6715515E-2,-7.152699E-2,3.3395052E-2,1.1673683E-1,-8.821891E-2,4.2409934E-2,1.8674705E-2,5.1248576E-2,2.4345944E-2,-6.957149E-2,1.0462711E-1,1.1043524E-2,-2.1681719E-2,-6.535884E-2],"split_indices":[1,3,1,0,0,1,1,3,3,3,0,1,0,2,3,3,0,1,0,1,1,1,3,0,0,0,2,0,1,3,0,2,1,1,0,1,0,3,0,3,0,0,0,0,0,2,0,3,0,0,0,0,1,0,0,0,0,0,0,0,0,0,0,0,0,0,0,0,0,0,0,0,0,0,0,0,0,0,0,0,0,0,0],"split_type":[0,0,0,0,0,0,0,0,0,0,0,0,0,0,0,0,0,0,0,0,0,0,0,0,0,0,0,0,0,0,0,0,0,0,0,0,0,0,0,0,0,0,0,0,0,0,0,0,0,0,0,0,0,0,0,0,0,0,0,0,0,0,0,0,0,0,0,0,0,0,0,0,0,0,0,0,0,0,0,0,0,0,0],"sum_hessian":[3.7956458E2,1.7057501E2,2.0898958E2,9.0930214E1,7.964479E1,6.631881E1,1.4267076E2,8.1086655E1,9.843559E0,4.4649765E1,3.499503E1,1.6455494E1,4.986332E1,1.22449615E2,2.0221144E1,5.782188E1,2.3264778E1,5.8668656E0,3.976694E0,4.7581377E0,3.989163E1,3.1498152E1,3.4968767E0,4.5715632E0,1.1883931E1,5.9354843E1,6.3094772E1,2.5522313E0,1.7668911E1,4.001822E1,1.7803661E1,9.863493E0,1.3401285E1,3.4309182E0,2.4359472E0,3.5240252E0,1.2341123E0,1.0939422E1,2.8952206E1,2.9607174E1,1.8909776E0,1.7197927E0,1.777084E0,4.6285186E0,7.255413E0,5.747442E1,1.8804275E0,1.2648693E1,5.044608E1,1.4611034E0,1.0911279E0,2.9345376E0,1.4734374E1,1.3946319E1,2.6071901E1,8.854101E0,8.94956E0,5.943065E0,3.9204283E0,7.852086E0,5.5491986E0,2.184248E0,1.2466704E0,1.4784262E0,2.045599E0,9.855658E0,1.0837641E0,1.1177677E1,1.7774529E1,2.0510586E1,9.096587E0,2.6669533E0,1.9615653E0,1.4510033E0,5.8044095E0,1.6388556E1,4.108586E1,4.6674128E0,7.98128E0,3.1097605E0,4.733632E1,9.604746E0,5.1296277E0],"tree_param":{"num_deleted":"0","num_feature":"6","num_nodes":"83","size_leaf_vector":"1"}},{"base_weights":[-1.06924195E-2,-9.326955E-2,7.671059E-3,-5.9874477E-3,6.396464E-1,9.030091E-2,-9.77274E-2,-2.0966692E-2,8.546993E-1,-3.2251197E-1,1.24116845E-1,-4.4594857E-1,3.268071E-2,1.168617E0,-2.0162283E-2,2.9153043E-2,-6.557054E-1,2.4443384E-1,-3.7401013E-2,-6.791801E-1,-1.1000549E-1,5.2204496E-1,-5.2764926E-2,4.3490566E-2,1.3441242E-1,-7.055795E-2,6.7044415E-2,2.1174362E-2,-8.5697345E-2,3.4096688E-2,-1.13400305E-2,-5.104163E-2,9.400634E-3,6.0376562E-2,-7.470482E-2,1.7023383E-2,-4.5279518E-2,7.815711E-2,-1.1100675E-2,-2.8431047E-2,9.980232E-3],"categories":[],"categories_nodes":[],"categories_segments":[],"categories_sizes":[],"default_left":[0,0,0,0,0,0,0,0,0,0,0,0,0,0,0,0,0,0,0,0,0,0,0,0,0,0,0,0,0,0,0,0,0,0,0,0,0,0,0,0,0],"id":18,"left_children":[1,-1,3,5,7,9,11,-1,13,15,17,19,21,23,-1,25,27,29,31,33,35,37,39,-1,-1,-1,-1,-1,-1,-1,-1,-1,-1,-1,-1,-1,-1,-1,-1,-1,-1],"loss_changes":[6.463709E0,0E0,3.2397854E0,3.2590714E0,1.6294322E0,2.5533586E0,8.592845E0,0E0,2.4018755E0,1.6489356E0,3.2570913E0,3.9633598E0,5.8131986E0,8.289242E-2,0E0,4.1127286E0,1.4358754E0,3.3518586E0,4.5368423E0,3.0828028E0,2.2204194E0,3.4810581E0,4.2218246E0,0E0,0E0,0E0,0E0,0E0,0E0,0E0,0E0,0E0,0E0,0E0,0E0,0E0,0E0,0E0,0E0,0E0,0E0],"parents":[2147483647,0,0,2,2,3,3,4,4,5,5,6,6,8,8,9,9,10,10,11,11,12,12,13,13,15,15,16,16,17,17,18,18,19,19,20,20,21,21,22,22],"right_children":[2,-1,4,6,8,10,12,-1,14,16,18,20,22,24,-1,26,28,30,32,34,36,38,40,-1,-1,-1,-1,-1,-1,-1,-1,-1,-1,-1,-1,-1,-1,-1,-1,-1,-1],"split_conditions":[3.3555555E0,-9.326955E-2,9.84E0,8.751E0,8.002E0,5.92E0,9.002E0,-2.0966692E-2,9.502E0,5.556E0,6.9E0,7.84E0,9.168E0,8.066667E0,-2.0162283E-2,5.7E0,5.2E0,8.005E0,7.3333335E0,4.7222223E0,7.366667E0,7.835E0,9.502E0,4.3490566E-2,1.3441242E-1,-7.055795E-2,6.7044415E-2,2.1174362E-2,-8.5697345E-2,3.4096688E-2,-1.13400305E-2,-5.104163E-2,9.400634E-3,6.0376562E-2,-7.470482E-2,1.7023383E-2,-4.5279518E-2,7.815711E-2,-1.1100675E-2,-2.8431047E-2,9.980232E-3],"split_indices":[3,0,0,2,2,0,2,0,2,0,5,0,2,5,0,3,3,0,5,3,5,0,2,0,0,0,0,0,0,0,0,0,0,0,0,0,0,0,0,0,0],"split_type":[0,0,0,0,0,0,0,0,0,0,0,0,0,0,0,0,0,0,0,0,0,0,0,0,0,0,0,0,0,0,0,0,0,0,0,0,0,0,0,0,0],"sum_hessian":[3.8034094E2,6.4549837E0,3.7388596E2,3.669459E2,6.9400573E0,1.790424E2,1.879035E2,1.4072837E0,5.5327735E0,1.2909578E1,1.6613281E2,5.053724E1,1.3736627E2,4.1832795E0,1.3494942E0,6.724641E0,6.184937E0,9.491552E1,7.12173E1,2.9225473E1,2.1311764E1,1.9659977E1,1.1770629E2,1.4788617E0,2.7044177E0,3.0872753E0,3.6373656E0,1.1549873E0,5.0299497E0,7.478727E1,2.0128252E1,1.4856274E1,5.6361027E1,1.0716333E0,2.8153841E1,1.20026655E1,9.309098E0,1.3777244E1,5.882734E0,4.640924E1,7.129705E1],"tree_param":{"num_deleted":"0","num_feature":"6","num_nodes":"41","size_leaf_vector":"1"}},{"base_weights":[-1.0270348E-2,-1.3124496E-1,1.899156E-1,9.1917746E-2,-1.0206312E-1,2.6968938E-1,-2.6126572E-1,1.303562E-1,-2.9169577E-1,3.4748033E-1,-1.8180001E-1,-9.421098E-2,-7.938985E-2,2.6295304E-2,3.7121212E-1,-7.334835E-1,4.942178E-1,4.8383278E-1,1.6429868E-1,-6.229665E-1,-8.196286E-3,-1.9643876E-1,3.9601347E-1,1.226224E-1,-1.06003664E-1,4.6910638E-1,-3.90707E-1,1.2217325E-2,-8.3157676E-1,7.624045E-1,-1.25517E-2,-5.874464E-2,5.259595E-1,-1.4308871E-1,5.681371E-1,2.1137005E-2,-9.393682E-2,4.9809825E-1,-2.2931431E-1,-9.716869E-3,-8.755736E-2,9.212474E-2,-3.5883453E-2,9.63574E-2,9.153324E-3,1.96093E-2,6.748883E-2,-6.528057E-2,-1.1508999E-3,-5.245449E-2,-1.10310934E-1,1.4890659E-2,1.1133194E-1,6.523485E-2,2.3030294E-2,-6.9134116E-2,1.7585301E-4,8.248993E-2,8.217106E-3,-6.3075656E-3,7.844569E-2,-6.44902E-2,1.3042907E-2,-2.914673E-2,4.5958873E-2],"categories":[],"categories_nodes":[],"categories_segments":[],"categories_sizes":[],"default_left":[0,0,0,0,0,0,0,0,0,0,0,0,0,0,0,0,0,0,0,0,0,0,0,0,0,0,0,0,0,0,0,0,0,0,0,0,0,0,0,0,0,0,0,0,0,0,0,0,0,0,0,0,0,0,0,0,0,0,0,0,0,0,0,0,0],"id":19,"left_children":[1,3,5,7,-1,9,11,13,15,17,19,-1,21,23,25,27,29,31,33,35,37,39,41,43,-1,45,47,-1,49,51,-1,-1,53,55,57,-1,-1,59,61,63,-1,-1,-1,-1,-1,-1,-1,-1,-1,-1,-1,-1,-1,-1,-1,-1,-1,-1,-1,-1,-1,-1,-1,-1,-1],"loss_changes":[9.059253E0,4.6363274E1,5.142849E0,2.7995305E0,0E0,4.2864714E0,2.610065E0,4.273937E0,6.391825E0,2.4911032E0,1.3987435E0,0E0,1.09071E0,1.2731615E1,4.0236325E0,1.0684271E0,1.2335831E0,2.9484167E0,5.720914E0,1.5614576E0,1.700235E0,1.9285269E0,1.8878732E0,2.8272376E0,0E0,2.4564934E0,6.2933594E-1,0E0,2.936015E-1,8.9338565E-1,0E0,0E0,1.9722786E0,2.113204E0,2.407351E0,0E0,0E0,7.921783E-1,1.6606916E0,1.8518897E0,0E0,0E0,0E0,0E0,0E0,0E0,0E0,0E0,0E0,0E0,0E0,0E0,0E0,0E0,0E0,0E0,0E0,0E0,0E0,0E0,0E0,0E0,0E0,0E0,0E0],"parents":[2147483647,0,0,1,1,2,2,3,3,5,5,6,6,7,7,8,8,9,9,10,10,12,12,13,13,14,14,15,15,16,16,17,17,18,18,19,19,20,20,21,21,22,22,23,23,25,25,26,26,28,28,29,29,32,32,33,33,34,34,37,37,38,38,39,39],"right_children":[2,4,6,8,-1,10,12,14,16,18,20,-1,22,24,26,28,30,32,34,36,38,40,42,44,-1,46,48,-1,50,52,-1,-1,54,56,58,-1,-1,60,62,64,-1,-1,-1,-1,-1,-1,-1,-1,-1,-1,-1,-1,-1,-1,-1,-1,-1,-1,-1,-1,-1,-1,-1,-1,-1],"split_conditions":[7.505E0,6.9E0,8.1E0,6.3E0,-1.0206312E-1,8.666667E0,8.125E0,5.625E0,6.89E0,8.9E0,8.555555E0,-9.421098E-2,8.5E0,5.6E0,8.59E0,5.292E0,9.522727E0,2.1E0,7.52E0,7.7777777E0,9.259259E0,7.6E0,8.8E0,4.9081197E0,-1.06003664E-1,6.3333335E0,8.84E0,1.2217325E-2,8.8E0,6.9333334E0,-1.25517E-2,-5.874464E-2,6.9E0,9.2E0,8.666667E0,2.1137005E-2,-9.393682E-2,9E0,9.782609E0,8.4E0,-8.755736E-2,9.212474E-2,-3.5883453E-2,9.63574E-2,9.153324E-3,1.96093E-2,6.748883E-2,-6.528057E-2,-1.1508999E-3,-5.245449E-2,-1.10310934E-1,1.4890659E-2,1.1133194E-1,6.523485E-2,2.3030294E-2,-6.9134116E-2,1.7585301E-4,8.248993E-2,8.217106E-3,-6.3075656E-3,7.844569E-2,-6.44902E-2,1.3042907E-2,-2.914673E-2,4.5958873E-2],"split_indices":[1,1,1,1,0,5,1,1,1,3,3,0,5,1,0,0,3,5,1,3,3,5,5,3,0,5,0,0,3,5,0,0,5,3,0,0,0,5,3,3,0,0,0,0,0,0,0,0,0,0,0,0,0,0,0,0,0,0,0,0,0,0,0,0,0],"split_type":[0,0,0,0,0,0,0,0,0,0,0,0,0,0,0,0,0,0,0,0,0,0,0,0,0,0,0,0,0,0,0,0,0,0,0,0,0,0,0,0,0,0,0,0,0,0,0,0,0,0,0,0,0,0,0,0,0,0,0,0,0,0,0,0,0],"sum_hessian":[3.720508E2,2.3212155E2,1.3992926E2,1.862778E2,4.584374E1,1.192473E2,2.0681965E1,1.6991258E2,1.636522E1,1.0191745E2,1.7329853E1,3.4789002E0,1.7203064E1,1.1942475E2,5.0487835E1,1.05189085E1,5.84631E0,5.7486053E1,4.4431396E1,4.1627975E0,1.3167055E1,1.4275173E1,2.927891E0,1.1051252E2,8.9122305E0,4.5080086E1,5.4077506E0,1.0566233E0,9.462285E0,3.9198196E0,1.9264904E0,1.6852607E0,5.5800793E1,2.5595043E1,1.8836353E1,1.2358565E0,2.9269407E0,3.6217313E0,9.545323E0,1.1992307E1,2.2828672E0,1.5965488E0,1.3313422E0,2.8705735E0,1.0764195E2,2.021436E1,2.4865726E1,2.770949E0,2.6368017E0,5.816804E0,3.645481E0,1.9445453E0,1.9752743E0,3.8245113E1,1.755568E1,4.560495E0,2.1034548E1,1.1868266E1,6.9680877E0,1.4871368E0,2.1345947E0,4.061115E0,5.484209E0,7.7303085E0,4.261998E0],"tree_param":{"num_deleted":"0","num_feature":"6","num_nodes":"65","size_leaf_vector":"1"}},{"base_weights":[2.845751E-2,-9.360974E-2,4.4229683E-2,2.5988808E-1,1.2598586E-2,1.5466152E-1,1.2645681E-1,-3.7680474E-1,3.5051137E-2,4.815446E-1,-3.3777666E-1,-2.1724473E-1,-7.77815E-1,1.4686482E-2,3.1543845E-1,1.8120894E-1,9.344383E-1,-6.146941E-1,8.520356E-1,-4.022875E-1,1.04577675E-1,-1.0401326E-1,-4.5702006E-3,4.2456333E-2,-1.8697965E-1,7.502939E-1,3.2076165E-2,3.2803938E-2,-8.513158E-2,1.2154746E-1,5.368724E-2,3.2115206E-3,-8.34718E-2,1.0037636E-1,2.9163836E-2,-8.925478E-2,-1.8105807E-2,-2.0844648E-3,1.6368164E-2,4.3685734E-2,-3.4904864E-2,1.09486334E-1,1.3449523E-2,5.6958098E-2,-3.9813664E-2],"categories":[],"categories_nodes":[],"categories_segments":[],"categories_sizes":[],"default_left":[0,0,0,0,0,0,0,0,0,0,0,0,0,0,0,0,0,0,0,0,0,0,0,0,0,0,0,0,0,0,0,0,0,0,0,0,0,0,0,0,0,0,0,0,0],"id":20,"left_children":[1,-1,3,5,7,9,-1,11,13,15,17,19,21,23,25,27,29,31,33,35,-1,-1,-1,37,39,41,43,-1,-1,-1,-1,-1,-1,-1,-1,-1,-1,-1,-1,-1,-1,-1,-1,-1,-1],"loss_changes":[5.774578E0,0E0,2.532615E0,4.826063E0,2.8568907E0,7.267203E0,0E0,9.70999E-1,1.7565155E0,3.494967E0,6.519143E0,3.723671E0,8.519399E-1,1.6241496E0,2.5433679E0,2.9230304E0,5.207243E-1,2.210178E0,3.5012007E-2,1.2536724E0,0E0,0E0,0E0,1.9562207E0,3.702818E0,1.5875392E0,3.3855443E0,0E0,0E0,0E0,0E0,0E0,0E0,0E0,0E0,0E0,0E0,0E0,0E0,0E0,0E0,0E0,0E0,0E0,0E0],"parents":[2147483647,0,0,2,2,3,3,4,4,5,5,7,7,8,8,9,9,10,10,11,11,12,12,13,13,14,14,15,15,16,16,17,17,18,18,19,19,23,23,24,24,25,25,26,26],"right_children":[2,-1,4,6,8,10,-1,12,14,16,18,20,22,24,26,28,30,32,34,36,-1,-1,-1,38,40,42,44,-1,-1,-1,-1,-1,-1,-1,-1,-1,-1,-1,-1,-1,-1,-1,-1,-1,-1],"split_conditions":[2E0,-9.360974E-2,6.667E0,9.702381E0,7.3E0,7.778E0,1.2645681E-1,9.128788E0,1.0002E1,7.134E0,8.9225E0,8.831746E0,9.782609E0,9.782609E0,3E0,7.042E0,7.5033336E0,8.181818E0,8.954191E0,6.2075E0,1.04577675E-1,-1.0401326E-1,-4.5702006E-3,7.92E0,8.334E0,7.833E0,8.392858E0,3.2803938E-2,-8.513158E-2,1.2154746E-1,5.368724E-2,3.2115206E-3,-8.34718E-2,1.0037636E-1,2.9163836E-2,-8.925478E-2,-1.8105807E-2,-2.0844648E-3,1.6368164E-2,4.3685734E-2,-3.4904864E-2,1.09486334E-1,1.3449523E-2,5.6958098E-2,-3.9813664E-2],"split_indices":[4,0,2,3,2,0,0,3,2,0,0,3,3,3,4,0,0,3,3,0,0,0,0,0,2,0,3,0,0,0,0,0,0,0,0,0,0,0,0,0,0,0,0,0,0],"split_type":[0,0,0,0,0,0,0,0,0,0,0,0,0,0,0,0,0,0,0,0,0,0,0,0,0,0,0,0,0,0,0,0,0,0,0,0,0,0,0,0,0,0,0,0,0],"sum_hessian":[3.7585712E2,5.1082525E0,3.7074887E2,4.6499897E1,3.2424896E2,4.3135933E1,3.3639615E0,1.681623E1,3.0743274E2,2.5939365E1,1.719657E1,1.3132584E1,3.6836476E0,2.8759683E2,1.9835903E1,1.6438389E1,9.500977E0,1.4341979E1,2.85459E0,1.2048822E1,1.0837612E0,2.4022057E0,1.2814419E0,2.5348138E2,3.4115448E1,7.1758394E0,1.2660064E1,1.4989148E1,1.4492419E0,4.3609576E0,5.1400185E0,3.857128E0,1.0484851E1,1.6237848E0,1.2308053E0,2.8029017E0,9.24592E0,1.6706964E2,8.641175E1,6.6856165E0,2.7429829E1,4.102394E0,3.0734453E0,5.484196E0,7.1758676E0],"tree_param":{"num_deleted":"0","num_feature":"6","num_nodes":"45","size_leaf_vector":"1"}},{"base_weights":[1.3212532E-2,-9.293703E-2,2.8139398E-2,1.1075139E-1,-1.1332316E-1,4.823633E-1,7.509309E-2,4.9246714E-2,-5.599742E-1,-3.0939115E-2,5.837952E-1,-5.2519906E-3,3.2265612E-1,-3.3234093E-1,1.7762698E-1,4.992077E-1,-6.569209E-1,9.947051E-2,4.3015847E-1,8.756581E-1,-3.2036927E-2,-5.3817725E-1,4.3792337E-1,-4.5832056E-1,2.3945415E-1,7.8572947E-1,1.1488589E-1,-2.4529776E-2,1.0611496E-1,-1.1314582E0,-4.719858E-1,-3.506578E-2,5.9120327E-2,1.0681041E-1,3.019373E-2,-1.4432864E-2,1.3653857E-2,-8.4309205E-2,2.1437705E-2,2.450639E-2,6.1480742E-2,-9.835068E-2,-2.5794685E-2,7.3688865E-2,-1.4807627E-2,1.1522231E-1,-3.5265382E-2,-1.0741735E-2,2.4294691E-2,-1.3252111E-1,-5.4126818E-2,4.0872347E-2,-5.4994047E-2],"categories":[],"categories_nodes":[],"categories_segments":[],"categories_sizes":[],"default_left":[0,0,0,0,0,0,0,0,0,0,0,0,0,0,0,0,0,0,0,0,0,0,0,0,0,0,0,0,0,0,0,0,0,0,0,0,0,0,0,0,0,0,0,0,0,0,0,0,0,0,0,0,0],"id":21,"left_children":[1,-1,3,5,7,9,11,13,15,-1,17,19,21,23,25,27,29,-1,31,33,35,37,39,41,43,45,47,-1,-1,49,51,-1,-1,-1,-1,-1,-1,-1,-1,-1,-1,-1,-1,-1,-1,-1,-1,-1,-1,-1,-1,-1,-1],"loss_changes":[5.2163568E0,0E0,4.2677174E0,3.0164878E0,9.810916E0,1.7856774E0,4.2063227E0,4.9431634E0,4.028118E0,0E0,7.124324E-1,3.8169065E0,5.3766966E0,1.9428053E0,2.7808573E0,1.7621875E0,2.4010277E0,0E0,2.0820696E0,2.0456982E-1,2.9879498E0,1.6876378E0,1.426898E0,1.9768157E0,1.1213844E0,3.2712455E0,2.0014071E0,0E0,0E0,2.733469E-1,1.9948149E0,0E0,0E0,0E0,0E0,0E0,0E0,0E0,0E0,0E0,0E0,0E0,0E0,0E0,0E0,0E0,0E0,0E0,0E0,0E0,0E0,0E0,0E0],"parents":[2147483647,0,0,2,2,3,3,4,4,5,5,6,6,7,7,8,8,10,10,11,11,12,12,13,13,14,14,15,15,16,16,18,18,19,19,20,20,21,21,22,22,23,23,24,24,25,25,26,26,29,29,30,30],"right_children":[2,-1,4,6,8,10,12,14,16,-1,18,20,22,24,26,28,30,-1,32,34,36,38,40,42,44,46,48,-1,-1,50,52,-1,-1,-1,-1,-1,-1,-1,-1,-1,-1,-1,-1,-1,-1,-1,-1,-1,-1,-1,-1,-1,-1],"split_conditions":[2E0,-9.293703E-2,4E0,3.5E0,8.003333E0,6.585E0,9.502E0,6.505E0,7.6282053E0,-3.0939115E-2,7.45E0,4.995E0,7.2E0,5E0,6.667E0,8.334E0,7.8E0,9.947051E-2,7.84E0,8.751E0,7.9175E0,7.4175E0,9.259259E0,5.4E0,7.918E0,8.221289E0,7.84689E0,-2.4529776E-2,1.0611496E-1,8.4975E0,8.113334E0,-3.506578E-2,5.9120327E-2,1.0681041E-1,3.019373E-2,-1.4432864E-2,1.3653857E-2,-8.4309205E-2,2.1437705E-2,2.450639E-2,6.1480742E-2,-9.835068E-2,-2.5794685E-2,7.3688865E-2,-1.4807627E-2,1.1522231E-1,-3.5265382E-2,-1.0741735E-2,2.4294691E-2,-1.3252111E-1,-5.4126818E-2,4.0872347E-2,-5.4994047E-2],"split_indices":[4,0,4,2,0,0,2,0,3,0,0,0,3,4,0,2,2,0,0,2,0,0,3,3,2,3,3,0,0,0,0,0,0,0,0,0,0,0,0,0,0,0,0,0,0,0,0,0,0,0,0,0,0],"split_type":[0,0,0,0,0,0,0,0,0,0,0,0,0,0,0,0,0,0,0,0,0,0,0,0,0,0,0,0,0,0,0,0,0,0,0,0,0,0,0,0,0,0,0,0,0,0,0,0,0,0,0,0,0],"sum_hessian":[3.6788956E2,4.7801023E0,3.6310947E2,2.2937502E2,1.3373445E2,1.8985962E1,2.1038905E2,9.869988E1,3.503456E1,1.9232527E0,1.706271E1,1.5957782E2,5.0811234E1,2.4446945E1,7.425294E1,2.589871E0,3.244469E1,3.1536648E0,1.3909045E1,3.773744E0,1.5580408E2,5.5670094E0,4.5244225E1,2.0195799E1,4.2511463E0,5.866826E0,6.8386116E1,1.3563509E0,1.2335202E0,7.6631556E0,2.4781534E1,2.1769311E0,1.1732114E1,2.1805854E0,1.5931588E0,9.359938E1,6.22047E1,3.876179E0,1.6908307E0,2.2785877E1,2.2458347E1,4.4980073E0,1.5697791E1,1.4668269E0,2.7843196E0,4.4288387E0,1.4379877E0,2.5054607E1,4.3331505E1,4.8315973E0,2.8315582E0,1.6701027E0,2.3111431E1],"tree_param":{"num_deleted":"0","num_feature":"6","num_nodes":"53","size_leaf_vector":"1"}},{"base_weights":[1.4438912E-2,-8.993677E-2,2.7648754E-2,1.1233362E-1,-7.3849685E-2,8.231437E-2,6.9360507E-1,1.5199885E-2,-3.068125E-1,-1.2834382E-1,1.4725477E-1,9.1284984E-1,2.5963444E-1,-1.2856312E-1,2.643973E-1,-3.3281732E-2,-5.622921E-1,8.900183E-2,-3.668945E-1,1.8602706E-1,-5.7844394E-1,3.4157444E-2,1.1619353E-1,-5.3871996E-3,3.9442718E-1,-4.752625E-1,1.7708327E-1,7.715474E-1,7.2121195E-2,-2.877416E-1,2.0865057E-1,7.7641435E-2,-6.697774E-1,-1.0120646E-2,6.443021E-2,-1.9494578E-2,-1.0242949E-1,2.1761833E-2,-4.236896E-2,-6.852797E-2,3.4598426E-3,6.2282335E-2,1.945642E-3,-5.738495E-2,4.29462E-2,3.9261628E-2,-2.2410205E-2,3.7062407E-2,1.1097207E-1,2.2492781E-2,-3.8326696E-2,1.0290672E-2,-8.588488E-2,-2.4246592E-4,5.169748E-2,-7.786935E-2,1.2071737E-2],"categories":[],"categories_nodes":[],"categories_segments":[],"categories_sizes":[],"default_left":[0,0,0,0,0,0,0,0,0,0,0,0,0,0,0,0,0,0,0,0,0,0,0,0,0,0,0,0,0,0,0,0,0,0,0,0,0,0,0,0,0,0,0,0,0,0,0,0,0,0,0,0,0,0,0,0,0],"id":22,"left_children":[1,-1,3,5,7,9,11,13,15,17,19,21,23,25,27,29,31,33,35,37,39,-1,-1,-1,41,43,45,47,49,51,53,-1,55,-1,-1,-1,-1,-1,-1,-1,-1,-1,-1,-1,-1,-1,-1,-1,-1,-1,-1,-1,-1,-1,-1,-1,-1],"loss_changes":[4.424846E0,0E0,3.1050153E0,3.3769858E0,3.4167209E0,2.5945158E0,6.6972685E-1,4.331E0,3.163065E0,2.3605146E0,4.1698923E0,4.4747686E-1,2.1547201E-1,8.215599E0,4.2551928E0,1.4791424E0,3.8985076E0,2.631612E0,2.2419612E0,2.7466488E0,5.192263E-1,0E0,0E0,0E0,2.734403E-1,3.4774647E0,3.6773624E0,1.2224522E0,2.393552E0,2.6886945E0,8.0800325E-1,0E0,2.0115013E0,0E0,0E0,0E0,0E0,0E0,0E0,0E0,0E0,0E0,0E0,0E0,0E0,0E0,0E0,0E0,0E0,0E0,0E0,0E0,0E0,0E0,0E0,0E0,0E0],"parents":[2147483647,0,0,2,2,3,3,4,4,5,5,6,6,7,7,8,8,9,9,10,10,11,11,12,12,13,13,14,14,15,15,16,16,17,17,18,18,19,19,20,20,24,24,25,25,26,26,27,27,28,28,29,29,30,30,32,32],"right_children":[2,-1,4,6,8,10,12,14,16,18,20,22,24,26,28,30,32,34,36,38,40,-1,-1,-1,42,44,46,48,50,52,54,-1,56,-1,-1,-1,-1,-1,-1,-1,-1,-1,-1,-1,-1,-1,-1,-1,-1,-1,-1,-1,-1,-1,-1,-1,-1],"split_conditions":[2E0,-8.993677E-2,6.8E0,6.7E0,4E0,6.505E0,4E0,9.444445E0,7.917E0,4E0,6.6666665E0,7.415E0,7.9656863E0,7.9175E0,7.886667E0,7.545E0,7.6E0,5.5E0,7.7777777E0,9.9E0,7.585E0,3.4157444E-2,1.1619353E-1,-5.3871996E-3,8.392858E0,9E0,9.1E0,7.585E0,9.25E0,8.954191E0,7.9E0,7.7641435E-2,1E1,-1.0120646E-2,6.443021E-2,-1.9494578E-2,-1.0242949E-1,2.1761833E-2,-4.236896E-2,-6.852797E-2,3.4598426E-3,6.2282335E-2,1.945642E-3,-5.738495E-2,4.29462E-2,3.9261628E-2,-2.2410205E-2,3.7062407E-2,1.1097207E-1,2.2492781E-2,-3.8326696E-2,1.0290672E-2,-8.588488E-2,-2.4246592E-4,5.169748E-2,-7.786935E-2,1.2071737E-2],"split_indices":[4,0,5,5,4,0,4,3,0,4,5,0,3,0,0,0,3,5,3,3,0,0,0,0,3,5,3,0,5,3,5,0,3,0,0,0,0,0,0,0,0,0,0,0,0,0,0,0,0,0,0,0,0,0,0,0,0],"split_type":[0,0,0,0,0,0,0,0,0,0,0,0,0,0,0,0,0,0,0,0,0,0,0,0,0,0,0,0,0,0,0,0,0,0,0,0,0,0,0,0,0,0,0,0,0,0,0,0,0,0,0,0,0,0,0,0,0],"sum_hessian":[3.6350107E2,4.22391E0,3.5927713E2,1.9580292E2,1.6347423E2,1.8727298E2,8.529937E0,1.18943184E2,4.453104E1,4.389782E1,1.4337517E2,4.9338436E0,3.596093E0,7.573528E1,4.32079E1,2.2051617E1,2.2479424E1,2.329785E1,2.0599972E1,1.3680943E2,6.565736E0,2.2180586E0,2.7157848E0,1.2617644E0,2.3343284E0,3.522457E1,4.051071E1,1.1049879E1,3.2158024E1,1.0655263E1,1.1396355E1,1.2081925E0,2.127123E1,1.7962767E1,5.3350835E0,1.7356712E1,3.2432578E0,1.306815E2,6.1279182E0,5.4909806E0,1.0747552E0,1.0399182E0,1.2944103E0,3.209313E1,3.13144E0,2.6366772E1,1.4143939E1,6.014872E0,5.035007E0,2.4457367E1,7.7006555E0,6.814099E0,3.8411639E0,7.354016E0,4.042339E0,1.8708466E1,2.562765E0],"tree_param":{"num_deleted":"0","num_feature":"6","num_nodes":"57","size_leaf_vector":"1"}},{"base_weights":[2.7690576E-3,-8.975331E-2,1.5407647E-2,3.0824037E-2,-3.322479E-1,2.2203137E-1,7.3379423E-3,-7.301222E-2,-1.7952493E-1,3.5104415E-1,-4.7356498E-1,-6.720887E-1,3.9819032E-2,4.996024E-2,-2.9572403E-1,2.5719702E-1,1.2663542E-1,2.8349658E-2,-6.7297375E-1,-1.0085309E0,-3.5680684E-1,1.9640068E-2,3.8077605E-1,-5.664164E-3,-6.8495333E-1,-5.6275964E-2,3.768047E-2,-1.113159E-1,-1.38675E-2,-8.8998815E-3,-1.1913084E-1,4.257905E-2,-5.3144373E-2,-1.504994E-3,1.7309327E-2,6.8628974E-2,-1.5099368E-2,3.9719157E-2,-5.725047E-2,-8.165424E-2,-2.6042683E-2],"categories":[],"categories_nodes":[],"categories_segments":[],"categories_sizes":[],"default_left":[0,0,0,0,0,0,0,0,0,0,0,0,0,0,0,0,0,0,0,0,0,0,0,0,0,0,0,0,0,0,0,0,0,0,0,0,0,0,0,0,0],"id":23,"left_children":[1,-1,3,5,7,9,11,-1,13,15,17,19,21,-1,23,25,-1,-1,27,29,31,33,35,37,39,-1,-1,-1,-1,-1,-1,-1,-1,-1,-1,-1,-1,-1,-1,-1,-1],"loss_changes":[4.2780976E0,0E0,1.9962859E0,1.5958955E0,8.301704E-1,3.6554976E0,7.041421E0,0E0,1.1544789E0,2.5409799E0,1.1733916E0,1.184413E0,2.086153E0,0E0,1.2969128E0,3.3037055E0,0E0,0E0,1.1270092E0,9.856477E-1,1.4649268E0,1.5375819E0,2.8571749E0,1.9652184E0,6.1720133E-2,0E0,0E0,0E0,0E0,0E0,0E0,0E0,0E0,0E0,0E0,0E0,0E0,0E0,0E0,0E0,0E0],"parents":[2147483647,0,0,2,2,3,3,4,4,5,5,6,6,8,8,9,9,10,10,11,11,12,12,14,14,15,15,18,18,19,19,20,20,21,21,22,22,23,23,24,24],"right_children":[2,-1,4,6,8,10,12,-1,14,16,18,20,22,-1,24,26,-1,-1,28,30,32,34,36,38,40,-1,-1,-1,-1,-1,-1,-1,-1,-1,-1,-1,-1,-1,-1,-1,-1],"split_conditions":[2E0,-8.975331E-2,9.3E0,3.8E0,9.4E0,7.415E0,4.3E0,-7.301222E-2,7E0,3.75E0,7.501E0,6.785E0,5E0,4.996024E-2,9.8E0,4.75E0,1.2663542E-1,2.8349658E-2,3.3333333E0,3E0,6.94E0,8.2E0,8.8E0,8.556E0,8.3775E0,-5.6275964E-2,3.768047E-2,-1.113159E-1,-1.38675E-2,-8.8998815E-3,-1.1913084E-1,4.257905E-2,-5.3144373E-2,-1.504994E-3,1.7309327E-2,6.8628974E-2,-1.5099368E-2,3.9719157E-2,-5.725047E-2,-8.165424E-2,-2.6042683E-2],"split_indices":[4,0,5,5,5,0,5,0,2,5,2,0,4,0,5,0,0,0,5,4,0,5,2,0,0,0,0,0,0,0,0,0,0,0,0,0,0,0,0,0,0],"split_type":[0,0,0,0,0,0,0,0,0,0,0,0,0,0,0,0,0,0,0,0,0,0,0,0,0,0,0,0,0,0,0,0,0,0,0,0,0,0,0,0,0],"sum_hessian":[3.737639E2,4.205042E0,3.6955884E2,3.5473965E2,1.4819187E1,3.7881474E1,3.1685815E2,3.0618234E0,1.1757364E1,3.237263E1,5.508843E0,1.3558346E1,3.0329984E2,1.2357087E0,1.0521655E1,3.0523987E1,1.8486438E0,1.0605911E0,4.4482517E0,5.49535E0,8.062996E0,2.8735104E2,1.5948785E1,6.6101894E0,3.911466E0,3.4140825E0,2.7109903E1,1.8449101E0,2.6033418E0,1.1577532E0,4.3375964E0,1.2086312E0,6.854365E0,2.3510463E2,5.2246407E1,9.944735E0,6.0040507E0,4.0389686E0,2.571221E0,2.2810097E0,1.6304562E0],"tree_param":{"num_deleted":"0","num_feature":"6","num_nodes":"41","size_leaf_vector":"1"}},{"base_weights":[2.0208439E-2,2.5701943E-1,-7.392202E-2,4.0328833E-1,4.5681585E-2,-3.3801058E-1,1.4578459E-1,3.4950918E-1,1.207323E-1,-2.0387992E-1,4.4897586E-1,1.6479937E-3,-9.717074E-2,1.8555057E-1,-4.6904722E-1,-3.6076576E-1,4.20516E-1,-1.2092548E-1,-1.0298461E-1,6.6814214E-1,-3.388441E-1,-7.882267E-1,1.3325179E-1,2.523128E-1,-2.1101303E-1,-6.677714E-1,2.8045876E-2,3.183278E-2,-7.888492E-2,6.402135E-1,1.9227856E-1,2.5747094E-2,-5.4134196E-1,7.798353E-1,-1.8510357E-2,-7.233713E-2,3.7675396E-2,-1.8735219E-2,-1.0227698E-1,6.43988E-1,4.584806E-2,-7.357966E-2,2.708413E-1,8.05929E-2,-3.9507827E-1,-7.553168E-1,-1.261826E-2,3.9278284E-2,1.0478946E-1,4.055787E-2,-8.439477E-3,-3.4238E-2,4.81818E-2,1.3954036E-2,-6.944481E-2,7.662188E-5,8.593747E-2,-3.2405566E-2,3.333992E-2,1.0681881E-1,2.2325834E-2,-1.0227564E-3,5.636233E-2,6.0646016E-2,2.2784874E-2,-5.7872213E-2,5.12863E-2,-4.022328E-2,-9.985637E-2],"categories":[],"categories_nodes":[],"categories_segments":[],"categories_sizes":[],"default_left":[0,0,0,0,0,0,0,0,0,0,0,0,0,0,0,0,0,0,0,0,0,0,0,0,0,0,0,0,0,0,0,0,0,0,0,0,0,0,0,0,0,0,0,0,0,0,0,0,0,0,0,0,0,0,0,0,0,0,0,0,0,0,0,0,0,0,0,0,0],"id":24,"left_children":[1,3,5,7,9,11,13,15,-1,17,19,21,-1,23,25,27,29,31,-1,33,35,37,39,41,43,45,-1,-1,-1,47,49,51,53,55,-1,-1,-1,57,-1,59,61,-1,63,-1,65,67,-1,-1,-1,-1,-1,-1,-1,-1,-1,-1,-1,-1,-1,-1,-1,-1,-1,-1,-1,-1,-1,-1,-1],"loss_changes":[8.156585E0,3.1982365E0,1.5251117E1,2.231614E0,4.4887676E0,2.5676437E1,3.6008239E0,3.123724E0,0E0,1.7717957E0,3.1639545E0,8.281534E0,0E0,3.6460376E0,1.529884E0,1.9645345E0,2.58636E0,1.6346812E0,0E0,1.4449167E0,1.4740096E0,2.0343885E0,3.0184798E0,2.3340983E0,4.0805106E0,2.5653648E-1,0E0,0E0,0E0,2.3223667E0,1.682584E0,3.5967138E0,8.10313E-1,7.589927E-1,0E0,0E0,0E0,5.0333035E-1,0E0,1.5285339E0,1.7297958E0,0E0,1.5238953E0,0E0,3.2462704E0,1.2977242E-1,0E0,0E0,0E0,0E0,0E0,0E0,0E0,0E0,0E0,0E0,0E0,0E0,0E0,0E0,0E0,0E0,0E0,0E0,0E0,0E0,0E0,0E0,0E0],"parents":[2147483647,0,0,1,1,2,2,3,3,4,4,5,5,6,6,7,7,9,9,10,10,11,11,13,13,14,14,15,15,16,16,17,17,19,19,20,20,21,21,22,22,23,23,24,24,25,25,29,29,30,30,31,31,32,32,33,33,37,37,39,39,40,40,42,42,44,44,45,45],"right_children":[2,4,6,8,10,12,14,16,-1,18,20,22,-1,24,26,28,30,32,-1,34,36,38,40,42,44,46,-1,-1,-1,48,50,52,54,56,-1,-1,-1,58,-1,60,62,-1,64,-1,66,68,-1,-1,-1,-1,-1,-1,-1,-1,-1,-1,-1,-1,-1,-1,-1,-1,-1,-1,-1,-1,-1,-1,-1],"split_conditions":[5.02E0,6.8E0,7.505E0,5.005E0,8.4975E0,6.9E0,9.25E0,5.88E0,1.207323E-1,9.3E0,9.502E0,5.625E0,-9.717074E-2,8.1E0,1.0002E1,4.385E0,7.545E0,8.23E0,-1.0298461E-1,4.4E0,9.005E0,5.6E0,5.635E0,2.1E0,3.6E0,9.5E0,2.8045876E-2,3.183278E-2,-7.888492E-2,7.17E0,6E0,7.613333E0,6.9333334E0,6.9E0,-1.8510357E-2,-7.233713E-2,3.7675396E-2,6.3333335E0,-1.0227698E-1,7.375E0,6.89E0,-7.357966E-2,6.265E0,8.05929E-2,8.5E0,8.255E0,-1.261826E-2,3.9278284E-2,1.0478946E-1,4.055787E-2,-8.439477E-3,-3.4238E-2,4.81818E-2,1.3954036E-2,-6.944481E-2,7.662188E-5,8.593747E-2,-3.2405566E-2,3.333992E-2,1.0681881E-1,2.2325834E-2,-1.0227564E-3,5.636233E-2,6.0646016E-2,2.2784874E-2,-5.7872213E-2,5.12863E-2,-4.022328E-2,-9.985637E-2],"split_indices":[1,5,1,1,0,1,5,0,0,5,2,1,0,1,2,1,0,0,0,1,0,1,1,5,5,0,0,0,0,0,5,0,5,5,0,0,0,5,0,0,1,0,0,0,5,0,0,0,0,0,0,0,0,0,0,0,0,0,0,0,0,0,0,0,0,0,0,0,0],"split_type":[0,0,0,0,0,0,0,0,0,0,0,0,0,0,0,0,0,0,0,0,0,0,0,0,0,0,0,0,0,0,0,0,0,0,0,0,0,0,0,0,0,0,0,0,0,0,0,0,0,0,0,0,0,0,0,0,0,0,0,0,0,0,0,0,0,0,0,0,0],"sum_hessian":[3.640594E2,1.03058075E2,2.6100128E2,6.0368324E1,4.268975E1,1.1828437E2,1.4271693E2,5.7928387E1,2.4399395E0,2.6676561E1,1.6013191E1,7.765763E1,4.0626736E1,1.3470285E2,8.014079E0,4.893948E0,5.303444E1,2.5283648E1,1.3929132E0,1.2646835E1,3.3663557E0,1.0378339E1,6.727929E1,1.15604385E2,1.9098469E1,6.420735E0,1.5933437E0,1.9913473E0,2.9026008E0,2.6103052E1,2.6931387E1,1.9440212E1,5.843436E0,1.1259023E1,1.3878125E0,2.1826463E0,1.1837094E0,2.6766477E0,7.7016916E0,8.900721E0,5.837857E1,1.4153111E0,1.1418907E2,2.409228E0,1.668924E1,5.1875577E0,1.2331771E0,1.7466003E1,8.637048E0,1.4944262E1,1.1987125E1,1.0895205E1,8.545008E0,1.0890222E0,4.7544136E0,1.1365391E0,1.0122484E1,1.4763273E0,1.2003202E0,3.665795E0,5.2349257E0,5.3558388E1,4.8201847E0,1.1478295E1,1.0271078E2,1.4183107E1,2.5061321E0,3.1984537E0,1.989104E0],"tree_param":{"num_deleted":"0","num_feature":"6","num_nodes":"69","size_leaf_vector":"1"}},{"base_weights":[-8.721167E-3,1.2230925E-1,-1.2058361E-1,2.1298027E-2,3.5283703E-1,-7.276199E-1,1.2277458E-1,9.612731E-2,-9.973662E-2,4.319206E-1,-2.0729959E-1,-1.8927756E-1,-9.534116E-2,3.1347114E-1,-9.244549E-2,6.13909E-2,9.9238746E-2,3.5764697E-1,1.0840793E-1,5.7874825E-2,-5.0717205E-1,-9.6403934E-2,1.523233E-1,3.729526E-1,-7.821057E-2,-2.0512763E-1,4.515521E-1,1.7253337E-2,6.411623E-1,6.5727043E-1,2.0293798E-1,-8.528853E-2,-1.216103E-1,-4.774739E-2,2.8443208E-1,4.4438156E-1,-2.3026293E-2,-2.0412045E-2,-4.9069816E-1,1.193391E-1,7.509828E-1,1.2709603E-2,-2.385313E-2,1.1264833E-1,-5.031664E-2,9.0386584E-2,-1.5325314E-2,-1.9172485E-3,6.92491E-2,4.386859E-2,-7.892982E-2,5.8879502E-2,-5.31261E-3,3.697841E-2,7.833703E-2,-2.205321E-2,5.9789866E-2,-2.4608262E-2,2.0429652E-2,-1.1382469E-1,-3.2026567E-2,5.414736E-2,-9.109685E-2,1.3168775E-1,2.8331494E-2],"categories":[],"categories_nodes":[],"categories_segments":[],"categories_sizes":[],"default_left":[0,0,0,0,0,0,0,0,0,0,0,0,0,0,0,0,0,0,0,0,0,0,0,0,0,0,0,0,0,0,0,0,0,0,0,0,0,0,0,0,0,0,0,0,0,0,0,0,0,0,0,0,0,0,0,0,0,0,0,0,0,0,0,0,0],"id":25,"left_children":[1,3,5,7,9,11,13,15,-1,17,19,21,-1,23,25,27,-1,29,-1,-1,31,-1,33,35,-1,37,39,41,43,45,47,-1,49,-1,51,53,55,57,59,61,63,-1,-1,-1,-1,-1,-1,-1,-1,-1,-1,-1,-1,-1,-1,-1,-1,-1,-1,-1,-1,-1,-1,-1,-1],"loss_changes":[5.355018E0,3.9112773E0,2.9198914E1,9.0967045E0,2.3579912E0,6.6914577E0,5.8370123E0,3.3921041E0,0E0,1.8015995E0,1.9461797E0,4.89823E0,0E0,5.196133E0,4.2152815E0,2.748538E0,0E0,1.8167105E0,0E0,0E0,6.438043E-1,0E0,1.2442989E0,2.0484524E0,0E0,2.9651597E0,1.0894449E0,2.8747334E0,4.78835E0,2.912477E0,3.187303E0,0E0,1.7744099E0,0E0,1.2271259E0,1.2553635E0,1.598973E0,1.8399515E0,2.075574E0,3.454176E0,1.2267516E0,0E0,0E0,0E0,0E0,0E0,0E0,0E0,0E0,0E0,0E0,0E0,0E0,0E0,0E0,0E0,0E0,0E0,0E0,0E0,0E0,0E0,0E0,0E0,0E0],"parents":[2147483647,0,0,1,1,2,2,3,3,4,4,5,5,6,6,7,7,9,9,10,10,11,11,13,13,14,14,15,15,17,17,20,20,22,22,23,23,25,25,26,26,27,27,28,28,29,29,30,30,32,32,34,34,35,35,36,36,37,37,38,38,39,39,40,40],"right_children":[2,4,6,8,10,12,14,16,-1,18,20,22,-1,24,26,28,-1,30,-1,-1,32,-1,34,36,-1,38,40,42,44,46,48,-1,50,-1,52,54,56,58,60,62,64,-1,-1,-1,-1,-1,-1,-1,-1,-1,-1,-1,-1,-1,-1,-1,-1,-1,-1,-1,-1,-1,-1,-1,-1],"split_conditions":[6.3E0,5.625E0,7.505E0,5.6E0,8.616667E0,6.9E0,7.7525E0,9.5E0,-9.973662E-2,6.27E0,9.1E0,6.875E0,-9.534116E-2,9.824561E0,9.9E0,5.005E0,9.9238746E-2,7E0,1.0840793E-1,5.7874825E-2,8.95E0,-9.6403934E-2,6.667E0,8.1E0,-7.821057E-2,9.285714E0,8.393333E0,4.4E0,9.306418E0,9.585E0,9.2E0,-8.528853E-2,9.34E0,-4.774739E-2,9.002E0,9.3E0,9.128788E0,8.25E0,9.347826E0,8.283334E0,8.334E0,1.2709603E-2,-2.385313E-2,1.1264833E-1,-5.031664E-2,9.0386584E-2,-1.5325314E-2,-1.9172485E-3,6.92491E-2,4.386859E-2,-7.892982E-2,5.8879502E-2,-5.31261E-3,3.697841E-2,7.833703E-2,-2.205321E-2,5.9789866E-2,-2.4608262E-2,2.0429652E-2,-1.1382469E-1,-3.2026567E-2,5.414736E-2,-9.109685E-2,1.3168775E-1,2.8331494E-2],"split_indices":[1,1,1,1,0,1,0,0,0,1,3,1,0,3,3,1,0,0,0,0,0,0,2,1,0,3,0,1,3,2,2,0,0,0,2,3,3,0,3,0,2,0,0,0,0,0,0,0,0,0,0,0,0,0,0,0,0,0,0,0,0,0,0,0,0],"split_type":[0,0,0,0,0,0,0,0,0,0,0,0,0,0,0,0,0,0,0,0,0,0,0,0,0,0,0,0,0,0,0,0,0,0,0,0,0,0,0,0,0,0,0,0,0,0,0,0,0,0,0,0,0,0,0,0,0,0,0,0,0,0,0,0,0],"sum_hessian":[3.6333994E2,1.672904E2,1.9604951E2,1.1708098E2,5.0209427E1,5.553422E1,1.405153E2,1.0991263E2,7.168354E0,4.419816E1,6.011269E0,1.6952833E1,3.8581387E1,7.426022E1,6.625507E1,1.0684031E2,3.07232E0,4.1069233E1,3.1289244E0,1.4031768E0,4.6080923E0,4.629915E0,1.2322919E1,7.10617E1,3.1985245E0,5.5402153E1,1.08529215E1,1.00238945E2,6.6013575E0,1.2878715E1,2.8190517E1,1.7905445E0,2.8175478E0,1.6834104E0,1.0639508E1,6.009854E1,1.0963158E1,3.4292324E1,2.1109825E1,5.807812E0,